{"learner":{"attributes":{"scikit_learn":"{\"_estimator_type\": \"classifier\"}"},"feature_names":["BMI","ecg_feature_3","Age","Height","DLP","PVC_transition_V4","Weight","PVC_transition_V3","PVC_transition_V1","PVC_transition_V5","Sex","ecg_feature_1","ecg_feature_2","ecg_feature_12","HTA","PVC_transition_V2","ecg_feature_27","Sleep_apnea","ecg_feature_6","ecg_feature_15","PVC_transition_V6","DM","ecg_feature_31","ecg_feature_22","ecg_feature_42","Smoker","ecg_feature_47","ecg_feature_40","ecg_feature_32","ecg_feature_14","ecg_feature_4","ecg_feature_8","ecg_feature_23","ecg_feature_38","ecg_feature_69","ecg_feature_74","ecg_feature_48","ecg_feature_70","ecg_feature_44","ecg_feature_52","COPD","ecg_feature_26","ecg_feature_11","ecg_feature_13","ecg_feature_5","ecg_feature_9","ecg_feature_133","ecg_feature_80","ecg_feature_7","ecg_feature_183"],"feature_types":["float","float","float","float","float","int","float","int","int","int","float","float","float","float","float","int","float","float","float","float","int","float","float","float","float","float","float","float","float","float","float","float","float","float","float","float","float","float","float","float","float","float","float","float","float","float","float","float","float","float"],"gradient_booster":{"model":{"gbtree_model_param":{"num_parallel_tree":"1","num_trees":"437"},"iteration_indptr":[0,1,2,3,4,5,6,7,8,9,10,11,12,13,14,15,16,17,18,19,20,21,22,23,24,25,26,27,28,29,30,31,32,33,34,35,36,37,38,39,40,41,42,43,44,45,46,47,48,49,50,51,52,53,54,55,56,57,58,59,60,61,62,63,64,65,66,67,68,69,70,71,72,73,74,75,76,77,78,79,80,81,82,83,84,85,86,87,88,89,90,91,92,93,94,95,96,97,98,99,100,101,102,103,104,105,106,107,108,109,110,111,112,113,114,115,116,117,118,119,120,121,122,123,124,125,126,127,128,129,130,131,132,133,134,135,136,137,138,139,140,141,142,143,144,145,146,147,148,149,150,151,152,153,154,155,156,157,158,159,160,161,162,163,164,165,166,167,168,169,170,171,172,173,174,175,176,177,178,179,180,181,182,183,184,185,186,187,188,189,190,191,192,193,194,195,196,197,198,199,200,201,202,203,204,205,206,207,208,209,210,211,212,213,214,215,216,217,218,219,220,221,222,223,224,225,226,227,228,229,230,231,232,233,234,235,236,237,238,239,240,241,242,243,244,245,246,247,248,249,250,251,252,253,254,255,256,257,258,259,260,261,262,263,264,265,266,267,268,269,270,271,272,273,274,275,276,277,278,279,280,281,282,283,284,285,286,287,288,289,290,291,292,293,294,295,296,297,298,299,300,301,302,303,304,305,306,307,308,309,310,311,312,313,314,315,316,317,318,319,320,321,322,323,324,325,326,327,328,329,330,331,332,333,334,335,336,337,338,339,340,341,342,343,344,345,346,347,348,349,350,351,352,353,354,355,356,357,358,359,360,361,362,363,364,365,366,367,368,369,370,371,372,373,374,375,376,377,378,379,380,381,382,383,384,385,386,387,388,389,390,391,392,393,394,395,396,397,398,399,400,401,402,403,404,405,406,407,408,409,410,411,412,413,414,415,416,417,418,419,420,421,422,423,424,425,426,427,428,429,430,431,432,433,434,435,436,437],"tree_info":[0,0,0,0,0,0,0,0,0,0,0,0,0,0,0,0,0,0,0,0,0,0,0,0,0,0,0,0,0,0,0,0,0,0,0,0,0,0,0,0,0,0,0,0,0,0,0,0,0,0,0,0,0,0,0,0,0,0,0,0,0,0,0,0,0,0,0,0,0,0,0,0,0,0,0,0,0,0,0,0,0,0,0,0,0,0,0,0,0,0,0,0,0,0,0,0,0,0,0,0,0,0,0,0,0,0,0,0,0,0,0,0,0,0,0,0,0,0,0,0,0,0,0,0,0,0,0,0,0,0,0,0,0,0,0,0,0,0,0,0,0,0,0,0,0,0,0,0,0,0,0,0,0,0,0,0,0,0,0,0,0,0,0,0,0,0,0,0,0,0,0,0,0,0,0,0,0,0,0,0,0,0,0,0,0,0,0,0,0,0,0,0,0,0,0,0,0,0,0,0,0,0,0,0,0,0,0,0,0,0,0,0,0,0,0,0,0,0,0,0,0,0,0,0,0,0,0,0,0,0,0,0,0,0,0,0,0,0,0,0,0,0,0,0,0,0,0,0,0,0,0,0,0,0,0,0,0,0,0,0,0,0,0,0,0,0,0,0,0,0,0,0,0,0,0,0,0,0,0,0,0,0,0,0,0,0,0,0,0,0,0,0,0,0,0,0,0,0,0,0,0,0,0,0,0,0,0,0,0,0,0,0,0,0,0,0,0,0,0,0,0,0,0,0,0,0,0,0,0,0,0,0,0,0,0,0,0,0,0,0,0,0,0,0,0,0,0,0,0,0,0,0,0,0,0,0,0,0,0,0,0,0,0,0,0,0,0,0,0,0,0,0,0,0,0,0,0,0,0,0,0,0,0,0,0,0,0,0,0,0,0,0,0,0,0,0,0,0,0,0,0,0,0,0,0,0,0,0,0,0,0,0,0,0,0,0,0,0,0,0,0,0,0,0,0,0,0,0,0,0,0,0,0,0,0,0,0],"trees":[{"base_weights":[6.7565814E-3,3.3423936E-1,-1.4944041E0,-8.0070525E-1,9.4659185E-1,4.65239E-1,-1.6778183E0,-1.4145277E0,4.8627365E-1,1.6219068E0,7.019462E-1,-1.8815271E0,4.6523646E-1,4.7176847E-1,-4.0333405E-1,-6.186743E-2,3.5909992E-1,4.8353964E-1,3.1730497E-1,-4.789412E-1,2.163205E-1,-4.6251786E-1,-9.83262E-2],"categories":[],"categories_nodes":[],"categories_segments":[],"categories_sizes":[],"default_left":[0,0,0,0,0,0,0,0,0,0,0,0,0,0,0,0,0,0,0,0,0,0,0],"id":0,"left_children":[1,3,5,7,9,-1,11,13,15,17,19,21,-1,-1,-1,-1,-1,-1,-1,-1,-1,-1,-1],"loss_changes":[1.8487594E3,2.1483152E3,4.2359326E2,8.570412E2,3.2812476E2,0E0,4.713451E2,6.018518E2,2.5811176E2,5.5702637E1,7.39061E2,1.4339844E1,0E0,0E0,0E0,0E0,0E0,0E0,0E0,0E0,0E0,0E0,0E0],"parents":[2147483647,0,0,1,1,2,2,3,3,4,4,6,6,7,7,8,8,9,9,10,10,11,11],"right_children":[2,4,6,8,10,-1,12,14,16,18,20,22,-1,-1,-1,-1,-1,-1,-1,-1,-1,-1,-1],"split_conditions":[1E0,-3.1374297E0,2.26E1,7.55E1,6.5E1,4.65239E-1,3.2600304E1,2.209317E1,1.075255E0,2.209317E1,2.210029E1,4.8453145E0,4.6523646E-1,4.7176847E-1,-4.0333405E-1,-6.186743E-2,3.5909992E-1,4.8353964E-1,3.1730497E-1,-4.789412E-1,2.163205E-1,-4.6251786E-1,-9.83262E-2],"split_indices":[15,11,0,6,6,0,0,0,44,0,0,13,0,0,0,0,0,0,0,0,0,0,0],"split_type":[0,0,0,0,0,0,0,0,0,0,0,0,0,0,0,0,0,0,0,0,0,0,0],"sum_hessian":[3.7612832E3,3.0889077E3,6.723755E2,1.0818013E3,2.0071063E3,3.357997E1,6.3879553E2,7.329652E2,3.488361E2,5.311157E2,1.4759906E3,6.052196E2,3.357588E1,4.8831245E1,6.84134E2,1.9932158E2,1.4951451E2,2.429206E2,2.8819513E2,9.571622E1,1.3802744E3,5.9627405E2,8.945595E0],"tree_param":{"num_deleted":"0","num_feature":"50","num_nodes":"23","size_leaf_vector":"1"}},{"base_weights":[-6.6809985E-3,2.3892844E-1,-1.1790869E0,5.7330436E-1,-1.0756825E0,-1.4888351E0,-3.2663143E-1,-4.8988336E-1,1.0818012E0,7.264392E-1,-1.3686191E0,3.2795072E-1,-1.5128297E0,1.0912868E0,-3.8969752E-1,-2.645906E-1,1.08899966E-1,4.5942813E-2,3.0043232E-1,4.33325E-1,-4.5911416E-1,-3.9104417E-1,4.3036312E-1,-3.9261457E-1,-2.656025E-1,-3.5667112E-1,4.189598E-1],"categories":[],"categories_nodes":[],"categories_segments":[],"categories_sizes":[],"default_left":[0,0,0,0,0,0,0,0,0,0,0,0,0,0,0,0,0,0,0,0,0,0,0,0,0,0,0],"id":1,"left_children":[1,3,5,7,9,11,13,15,17,19,21,-1,23,25,-1,-1,-1,-1,-1,-1,-1,-1,-1,-1,-1,-1,-1],"loss_changes":[1.057925E3,1.3336755E3,1.6561688E2,1.309472E3,3.262633E2,3.3852905E1,3.1292368E2,4.398954E2,2.221936E2,2.4045895E2,3.9945227E2,0E0,1.5019531E1,1.3425716E2,0E0,0E0,0E0,0E0,0E0,0E0,0E0,0E0,0E0,0E0,0E0,0E0,0E0],"parents":[2147483647,0,0,1,1,2,2,3,3,4,4,5,5,6,6,7,7,8,8,9,9,10,10,12,12,13,13],"right_children":[2,4,6,8,10,12,14,16,18,20,22,-1,24,26,-1,-1,-1,-1,-1,-1,-1,-1,-1,-1,-1,-1,-1],"split_conditions":[1E0,1E0,1.7E2,-3.5157259E0,1.58E2,-6.6945624E0,1.84E2,7E1,3.8E1,6.1E1,1.79E2,3.2795072E-1,7.7E1,4.2E1,-3.8969752E-1,-2.645906E-1,1.08899966E-1,4.5942813E-2,3.0043232E-1,4.33325E-1,-4.5911416E-1,-3.9104417E-1,4.3036312E-1,-3.9261457E-1,-2.656025E-1,-3.5667112E-1,4.189598E-1],"split_indices":[15,8,3,11,3,18,3,6,2,2,3,0,2,2,0,0,0,0,0,0,0,0,0,0,0,0,0],"split_type":[0,0,0,0,0,0,0,0,0,0,0,0,0,0,0,0,0,0,0,0,0,0,0,0,0,0,0],"sum_hessian":[3.6684644E3,3.0329324E3,6.355319E2,2.419021E3,6.139113E2,4.646832E2,1.7084877E2,7.8195917E2,1.6370618E3,8.511818E1,5.2879315E2,3.0680013E0,4.6161517E2,8.055967E1,9.02891E1,4.7813242E2,3.0382678E2,2.4098862E2,1.3960732E3,6.1161655E1,2.3956526E1,4.92161E2,3.663214E1,3.680041E2,9.3611084E1,1.5344463E1,6.52152E1],"tree_param":{"num_deleted":"0","num_feature":"50","num_nodes":"27","size_leaf_vector":"1"}},{"base_weights":[-1.1202237E-2,5.7837623E-1,-8.5130274E-1,8.687379E-1,-4.2610806E-1,-1.04608E0,3.2268366E-1,1.0287678E0,-1.0027608E0,-1.3527251E0,8.236936E-1,-1.0797007E0,7.246585E-1,5.286838E-1,-1.2834839E0,2.9188606E-1,-1.8188004E-1,-2.6803958E-1,4.996309E-2,-3.8620287E-1,3.607499E-1,3.191144E-1,-4.0478522E-1,-3.0302694E-1,-1.646588E-1,3.3641532E-1,-4.0658814E-1,-5.0475854E-2,2.0733428E-1,-3.5781258E-1,1.7475489E-1],"categories":[],"categories_nodes":[],"categories_segments":[],"categories_sizes":[],"default_left":[0,0,0,0,0,0,0,0,0,0,0,0,0,0,0,0,0,0,0,0,0,0,0,0,0,0,0,0,0,0,0],"id":2,"left_children":[1,3,5,7,9,11,13,15,17,19,21,23,25,27,29,-1,-1,-1,-1,-1,-1,-1,-1,-1,-1,-1,-1,-1,-1,-1,-1],"loss_changes":[1.7161855E3,5.9435504E2,3.2796667E2,4.741615E2,5.298938E2,7.419336E1,6.7117485E1,4.4381152E2,1.6076477E1,1.7733395E2,2.3760965E2,7.763025E1,3.7941723E1,4.4110966E1,1.0391468E1,0E0,0E0,0E0,0E0,0E0,0E0,0E0,0E0,0E0,0E0,0E0,0E0,0E0,0E0,0E0,0E0],"parents":[2147483647,0,0,1,1,2,2,3,3,4,4,5,5,6,6,7,7,8,8,9,9,10,10,11,11,12,12,13,13,14,14],"right_children":[2,4,6,8,10,12,14,16,18,20,22,24,26,28,30,-1,-1,-1,-1,-1,-1,-1,-1,-1,-1,-1,-1,-1,-1,-1,-1],"split_conditions":[5.0919976E0,1E0,3.1708384E0,1E0,1E0,1E0,1E0,1E0,3.7311723E0,1E0,1E0,8.608554E-1,1E0,-1.6990737E0,1E0,2.9188606E-1,-1.8188004E-1,-2.6803958E-1,4.996309E-2,-3.8620287E-1,3.607499E-1,3.191144E-1,-4.0478522E-1,-3.0302694E-1,-1.646588E-1,3.3641532E-1,-4.0658814E-1,-5.0475854E-2,2.0733428E-1,-3.5781258E-1,1.7475489E-1],"split_indices":[1,4,13,15,14,5,17,8,1,25,8,16,21,39,14,0,0,0,0,0,0,0,0,0,0,0,0,0,0,0,0],"split_type":[0,0,0,0,0,0,0,0,0,0,0,0,0,0,0,0,0,0,0,0,0,0,0,0,0,0,0,0,0,0,0],"sum_hessian":[3.4623723E3,2.0339565E3,1.4284158E3,1.5787966E3,4.5515994E2,1.2260364E3,2.0237935E2,1.4553682E3,1.23428505E2,2.618289E2,1.9333105E2,1.2041665E3,2.1869883E1,1.805511E2,2.1828238E1,1.3284E3,1.2696812E2,1.1499136E2,8.437137E0,2.4255829E2,1.9270588E1,1.623721E2,3.095896E1,8.4959973E2,3.5456674E2,1.7835045E1,4.0348387E0,5.4205093E1,1.26346016E2,2.0693367E1,1.1348715E0],"tree_param":{"num_deleted":"0","num_feature":"50","num_nodes":"31","size_leaf_vector":"1"}},{"base_weights":[-1.9310016E-2,4.6622592E-1,-6.7432624E-1,7.1246254E-1,-3.75593E-1,-1.3096966E0,-4.096162E-1,8.3513486E-1,-8.155145E-1,-8.0783874E-1,1.6693348E0,3.2288566E-1,-1.4639928E0,2.527169E-3,-1.2860235E0,3.1102178E-1,1.1531646E-1,-3.159658E-1,3.8736574E-2,-2.4459602E-1,3.283341E-1,5.2336603E-1,3.3713678E-1,-3.623489E-1,2.9959768E-1,1.8163434E-1,-1.674289E-1,3.588295E-1,-3.4241247E-1],"categories":[],"categories_nodes":[],"categories_segments":[],"categories_sizes":[],"default_left":[0,0,0,0,0,0,0,0,0,0,0,0,0,0,0,0,0,0,0,0,0,0,0,0,0,0,0,0,0],"id":3,"left_children":[1,3,5,7,9,11,13,15,17,19,21,-1,23,25,27,-1,-1,-1,-1,-1,-1,-1,-1,-1,-1,-1,-1,-1,-1],"loss_changes":[1.0260983E3,3.8443002E2,2.2871838E2,2.6944708E2,3.7042502E2,1.6578424E2,3.527157E2,2.1018036E2,5.1558296E1,1.4872035E2,3.2230072E0,0E0,2.8189209E1,3.4062582E2,1.06546936E2,0E0,0E0,0E0,0E0,0E0,0E0,0E0,0E0,0E0,0E0,0E0,0E0,0E0,0E0],"parents":[2147483647,0,0,1,1,2,2,3,3,4,4,5,5,6,6,7,7,8,8,9,9,10,10,12,12,13,13,14,14],"right_children":[2,4,6,8,10,12,14,16,18,20,22,-1,24,26,28,-1,-1,-1,-1,-1,-1,-1,-1,-1,-1,-1,-1,-1,-1],"split_conditions":[4.7899795E0,1E0,2.3388687E1,1E0,1E0,2.1799309E1,1E0,1.6921019E2,1.7E2,3.2873108E1,1.61E2,3.2288566E-1,1E0,6.6E1,5.7E1,3.1102178E-1,1.1531646E-1,-3.159658E-1,3.8736574E-2,-2.4459602E-1,3.283341E-1,5.2336603E-1,3.3713678E-1,-3.623489E-1,2.9959768E-1,1.8163434E-1,-1.674289E-1,3.588295E-1,-3.4241247E-1],"split_indices":[1,4,0,15,25,0,4,3,3,0,3,0,4,2,2,0,0,0,0,0,0,0,0,0,0,0,0,0,0],"split_type":[0,0,0,0,0,0,0,0,0,0,0,0,0,0,0,0,0,0,0,0,0,0,0,0,0,0,0,0,0],"sum_hessian":[3.2237397E3,1.8505908E3,1.3731489E3,1.4329022E3,4.1768866E2,4.0150198E2,9.716469E2,1.3274791E3,1.0542307E2,3.4572934E2,7.195931E1,2.139717E1,3.8010483E2,6.606772E2,3.109697E2,5.934664E2,7.3401276E2,7.101198E1,3.44111E1,3.1766168E2,2.8067665E1,2.2865566E1,4.9093746E1,3.7738107E2,2.7237432E0,3.1878036E2,3.4189685E2,1.2270468E1,2.9869922E2],"tree_param":{"num_deleted":"0","num_feature":"50","num_nodes":"29","size_leaf_vector":"1"}},{"base_weights":[3.7832428E-3,-8.753441E-2,3.4864324E-1,8.862065E-2,-6.8313307E-1,3.2511258E-1,-2.6651854E-2,-9.3086267E-1,3.5196686E-1,-6.778681E-2,1.0731104E-1,-3.2277238E-1,-7.3624484E-2],"categories":[],"categories_nodes":[],"categories_segments":[],"categories_sizes":[],"default_left":[0,0,0,0,0,0,0,0,0,0,0,0,0],"id":4,"left_children":[1,3,-1,5,7,-1,9,11,-1,-1,-1,-1,-1],"loss_changes":[3.887895E2,2.9328256E2,0E0,3.1092337E2,3.3739398E2,0E0,2.321104E2,1.4024829E2,0E0,0E0,0E0,0E0,0E0],"parents":[2147483647,0,0,1,1,3,3,4,4,6,6,7,7],"right_children":[2,4,-1,6,8,-1,10,12,-1,-1,-1,-1,-1],"split_conditions":[1E0,1E0,3.4864324E-1,1.55E2,1E0,3.2511258E-1,1.73E2,1E0,3.5196686E-1,-6.778681E-2,1.0731104E-1,-3.2277238E-1,-7.3624484E-2],"split_indices":[9,4,0,3,25,0,3,14,0,0,0,0,0],"split_type":[0,0,0,0,0,0,0,0,0,0,0,0,0],"sum_hessian":[2.96561E3,2.7876565E3,1.7795363E2,2.1505908E3,6.3706573E2,1.8180887E2,1.968782E3,5.716354E2,6.543037E1,1.2812662E3,6.8751575E2,3.4893564E2,2.2269972E2],"tree_param":{"num_deleted":"0","num_feature":"50","num_nodes":"13","size_leaf_vector":"1"}},{"base_weights":[2.496395E-3,1.5443787E-1,-7.121187E-1,9.588525E-3,8.28414E-1,-8.617394E-1,4.344353E-1,-8.800572E-2,3.1629938E-1,9.4994175E-1,-1.2104577E0,-2.5551805E-1,-1.1222261E0,3.0339557E-1,-5.032601E-2,2.5367308E-1,-1.828823E-2,-3.4069893E-1,9.307146E-2,6.810735E-2,-2.98279E-1,-1.7314216E-1,-3.393165E-1],"categories":[],"categories_nodes":[],"categories_segments":[],"categories_sizes":[],"default_left":[0,0,0,0,0,0,0,0,0,0,0,0,0,0,0,0,0,0,0,0,0,0,0],"id":5,"left_children":[1,3,5,7,9,11,-1,13,-1,15,17,19,21,-1,-1,-1,-1,-1,-1,-1,-1,-1,-1],"loss_changes":[3.1014795E2,2.2961365E2,1.8756206E2,2.4653238E2,1.0400409E2,7.296777E1,0E0,2.8623602E2,0E0,3.8604553E1,8.693428E0,7.660294E1,3.3612183E1,0E0,0E0,0E0,0E0,0E0,0E0,0E0,0E0,0E0,0E0],"parents":[2147483647,0,0,1,1,2,2,3,3,4,4,5,5,7,7,9,9,10,10,11,11,12,12],"right_children":[2,4,6,8,10,12,-1,14,-1,16,18,20,22,-1,-1,-1,-1,-1,-1,-1,-1,-1,-1],"split_conditions":[7.4E1,3.6956527E0,1E0,1E0,1E0,-8.836958E-1,4.344353E-1,1.55E2,3.1629938E-1,1E0,1E0,2.0164106E1,7.677647E0,3.0339557E-1,-5.032601E-2,2.5367308E-1,-1.828823E-2,-3.4069893E-1,9.307146E-2,6.810735E-2,-2.98279E-1,-1.7314216E-1,-3.393165E-1],"split_indices":[2,13,20,9,17,45,0,3,0,4,40,12,12,0,0,0,0,0,0,0,0,0,0],"split_type":[0,0,0,0,0,0,0,0,0,0,0,0,0,0,0,0,0,0,0,0,0,0,0],"sum_hessian":[2.8600532E3,2.360457E3,4.9959622E2,1.9450343E3,4.1542273E2,4.723723E2,2.7223886E1,1.8083431E3,1.3669116E2,3.9304697E2,2.237575E1,1.4380418E2,3.2856815E2,1.463268E2,1.6620164E3,3.6138556E2,3.1661419E1,2.0707264E1,1.6684843E0,9.2395256E1,5.1408924E1,1.3408582E2,1.9448233E2],"tree_param":{"num_deleted":"0","num_feature":"50","num_nodes":"23","size_leaf_vector":"1"}},{"base_weights":[-8.86456E-3,4.5711613E-1,-4.111812E-1,6.252897E-1,-1.0044162E0,-1.009319E0,-6.5653585E-2,7.596796E-1,-1.2485071E0,3.121261E-1,-1.2192551E0,3.0549473E-1,-1.1537852E0,4.0472794E-1,-6.619906E-1,2.1023627E-1,-1.3200377E-1,3.0290058E-1,-4.2973992E-1,-3.2166314E-1,2.509861E-1,-3.113171E-1,-6.0891837E-2,2.8281456E-1,-3.0030632E-2,1.7453445E-1,-2.0706688E-1],"categories":[],"categories_nodes":[],"categories_segments":[],"categories_sizes":[],"default_left":[0,0,0,0,0,0,0,0,0,0,0,0,0,0,0,0,0,0,0,0,0,0,0,0,0,0,0],"id":6,"left_children":[1,3,5,7,9,11,13,15,17,-1,19,-1,21,23,25,-1,-1,-1,-1,-1,-1,-1,-1,-1,-1,-1,-1],"loss_changes":[5.0649323E2,3.0760275E2,2.98706E2,2.8315204E2,6.472485E1,1.7477826E2,2.5918893E2,1.4353882E2,9.9523E1,0E0,2.9128662E1,0E0,5.4814026E1,2.0741557E2,1.0719205E2,0E0,0E0,0E0,0E0,0E0,0E0,0E0,0E0,0E0,0E0,0E0,0E0],"parents":[2147483647,0,0,1,1,2,2,3,3,4,4,5,5,6,6,7,7,8,8,10,10,12,12,13,13,14,14],"right_children":[2,4,6,8,10,12,14,16,18,-1,20,-1,22,24,26,-1,-1,-1,-1,-1,-1,-1,-1,-1,-1,-1,-1],"split_conditions":[1.7662218E0,1E0,2.546401E1,1.83E2,1.58E2,2.1799309E1,1.592571E1,1E0,2.4524345E1,3.121261E-1,1.79E2,3.0549473E-1,1E0,1.69E2,2.65E1,2.1023627E-1,-1.3200377E-1,3.0290058E-1,-4.2973992E-1,-3.2166314E-1,2.509861E-1,-3.113171E-1,-6.0891837E-2,2.8281456E-1,-3.0030632E-2,1.7453445E-1,-2.0706688E-1],"split_indices":[1,8,0,3,3,0,1,15,0,0,3,0,20,3,0,0,0,0,0,0,0,0,0,0,0,0,0],"split_type":[0,0,0,0,0,0,0,0,0,0,0,0,0,0,0,0,0,0,0,0,0,0,0,0,0,0,0],"sum_hessian":[2.7000298E3,1.2497152E3,1.4503146E3,1.1219198E3,1.2779551E2,5.292035E2,9.2111115E2,1.0479199E3,7.399984E1,1.0123202E1,1.1767231E2,3.0830046E1,4.983734E2,5.1408966E2,4.0702145E2,9.7115717E2,7.676274E1,1.2131088E1,6.1868748E1,1.1337156E2,4.3007493E0,4.3601532E2,6.2358093E1,2.1151768E2,3.02572E2,4.8062317E1,3.5895914E2],"tree_param":{"num_deleted":"0","num_feature":"50","num_nodes":"27","size_leaf_vector":"1"}},{"base_weights":[5.1415726E-3,4.9015364E-1,-3.0975547E-1,7.9273087E-1,-3.6574587E-1,-1.3449678E0,-1.6848652E-1,9.577726E-1,-6.753555E-1,-9.494256E-1,4.7396585E-1,-3.3675134E-1,-2.6413853E0,-6.254864E-1,2.1108902E-1,2.6145434E-1,-1.8587027E-1,1.6475993E-1,-2.8688955E-1,-3.196091E-1,1.1349729E-1,2.3431472E-1,-4.4217592E-1,-2.9465792E-1,3.4098133E-1,-1.2263025E-1,-6.5402704E-1,2.8087384E-1,-1.7567165E-1,1.6504155E-1,-5.4968443E-2],"categories":[],"categories_nodes":[],"categories_segments":[],"categories_sizes":[],"default_left":[0,0,0,0,0,0,0,0,0,0,0,0,0,0,0,0,0,0,0,0,0,0,0,0,0,0,0,0,0,0,0],"id":7,"left_children":[1,3,5,7,9,11,13,15,17,19,21,23,25,27,29,-1,-1,-1,-1,-1,-1,-1,-1,-1,-1,-1,-1,-1,-1,-1,-1],"loss_changes":[3.8093057E2,2.5524634E2,2.1898288E2,1.7715451E2,1.266189E2,2.3152133E2,2.314384E2,1.3298035E2,5.1349133E1,8.0106705E1,1.1848952E2,1.5799283E2,3.0669556E0,1.0444484E2,1.4900372E2,0E0,0E0,0E0,0E0,0E0,0E0,0E0,0E0,0E0,0E0,0E0,0E0,0E0,0E0,0E0,0E0],"parents":[2147483647,0,0,1,1,2,2,3,3,4,4,5,5,6,6,7,7,8,8,9,9,10,10,11,11,12,12,13,13,14,14],"right_children":[2,4,6,8,10,12,14,16,18,20,22,24,26,28,30,-1,-1,-1,-1,-1,-1,-1,-1,-1,-1,-1,-1,-1,-1,-1,-1],"split_conditions":[5.479078E-1,1E0,3.8E1,1E0,1E0,1.6921019E2,-6.93961E-1,1E0,1.74E2,1.75E2,1.78E2,3E1,3.3E1,-5.141206E0,9.59811E0,2.6145434E-1,-1.8587027E-1,1.6475993E-1,-2.8688955E-1,-3.196091E-1,1.1349729E-1,2.3431472E-1,-4.4217592E-1,-2.9465792E-1,3.4098133E-1,-1.2263025E-1,-6.5402704E-1,2.8087384E-1,-1.7567165E-1,1.6504155E-1,-5.4968443E-2],"split_indices":[1,4,2,8,14,3,16,15,3,3,3,2,2,18,1,0,0,0,0,0,0,0,0,0,0,0,0,0,0,0,0],"split_type":[0,0,0,0,0,0,0,0,0,0,0,0,0,0,0,0,0,0,0,0,0,0,0,0,0,0,0,0,0,0,0],"sum_hessian":[2.4909426E3,9.817491E2,1.5091936E3,7.263238E2,2.554253E2,1.7930258E2,1.329891E3,6.538924E2,7.24314E1,1.5137556E2,1.0404973E2,1.0202199E2,7.7280594E1,6.0442267E2,7.254683E2,6.132419E2,4.065051E1,1.8982409E1,5.3448986E1,1.2106495E2,3.0310614E1,8.6600075E1,1.7449654E1,6.849021E1,3.3531784E1,2.4056444E0,7.4874954E1,2.9989277E1,5.744334E2,3.5153622E2,3.739321E2],"tree_param":{"num_deleted":"0","num_feature":"50","num_nodes":"31","size_leaf_vector":"1"}},{"base_weights":[5.0491896E-3,2.8902546E-1,-8.6731106E-2,-7.41309E-1,2.2696233E-1,1.0428423E0,-9.3072087E-1,4.549123E-1,-4.6532068E-1,-2.4568059E-1,2.893618E-1,1.1516117E-1,-2.4875942E-1,1.4958364E-1,-4.5524716E-2,-1.4924702E-1,3.5917222E-1],"categories":[],"categories_nodes":[],"categories_segments":[],"categories_sizes":[],"default_left":[0,0,0,0,0,0,0,0,0,0,0,0,0,0,0,0,0],"id":8,"left_children":[1,-1,3,5,7,9,11,13,15,-1,-1,-1,-1,-1,-1,-1,-1],"loss_changes":[2.5046481E2,0E0,4.380276E2,2.3444092E2,2.273313E2,2.1294182E1,8.176178E1,1.1194762E2,1.0230327E2,0E0,0E0,0E0,0E0,0E0,0E0,0E0,0E0],"parents":[2147483647,0,0,2,2,3,3,4,4,5,5,6,6,7,7,8,8],"right_children":[2,-1,4,6,8,10,12,14,16,-1,-1,-1,-1,-1,-1,-1,-1],"split_conditions":[2.209317E1,2.8902546E-1,2.546401E1,-5.7365513E0,1.592571E1,2.2222221E1,-4.8567357E0,8.9E1,1.12E2,-2.4568059E-1,2.893618E-1,1.1516117E-1,-2.4875942E-1,1.4958364E-1,-4.5524716E-2,-1.4924702E-1,3.5917222E-1],"split_indices":[0,0,0,1,1,0,18,6,6,0,0,0,0,0,0,0,0],"split_type":[0,0,0,0,0,0,0,0,0,0,0,0,0,0,0,0,0],"sum_hessian":[2.2938997E3,1.6517653E2,2.128723E3,6.903451E2,1.4383779E3,6.528445E1,6.2506067E2,1.0835126E3,3.548653E2,3.4752357E0,6.1809208E1,3.738423E1,5.8767645E2,8.688071E2,2.1470546E2,3.308448E2,2.402049E1],"tree_param":{"num_deleted":"0","num_feature":"50","num_nodes":"17","size_leaf_vector":"1"}},{"base_weights":[1.7359857E-2,1.1196079E0,-6.1558567E-2,-1.9065098E-1,1.1819152E0,-2.1767314E-1,3.9527237E-1,-8.769476E-3,2.9256317E-1,-2.705639E-1,2.821533E-1,1.903359E-1,1.031195E0,2.7401049E-2,-1.1355397E-1,-3.409386E-2,1.6772261E-1,2.7180433E-1,-1.8976308E-1],"categories":[],"categories_nodes":[],"categories_segments":[],"categories_sizes":[],"default_left":[0,0,0,0,0,0,0,0,0,0,0,0,0,0,0,0,0,0,0],"id":9,"left_children":[1,3,5,-1,7,9,11,-1,-1,13,-1,15,17,-1,-1,-1,-1,-1,-1],"loss_changes":[1.8610901E2,1.8287766E1,1.4134581E2,0E0,4.820862E0,1.072103E2,6.4128845E1,0E0,0E0,1.07757835E2,0E0,6.393793E1,2.011174E1,0E0,0E0,0E0,0E0,0E0,0E0],"parents":[2147483647,0,0,1,1,2,2,4,4,5,5,6,6,9,9,11,11,12,12],"right_children":[2,4,6,-1,8,10,12,-1,-1,14,-1,16,18,-1,-1,-1,-1,-1,-1],"split_conditions":[-1.2983628E1,1.53E2,2.4865372E0,-1.9065098E-1,-8.533613E0,1E0,1.8E2,-8.769476E-3,2.9256317E-1,5.479078E-1,2.821533E-1,8.608554E-1,1E0,2.7401049E-2,-1.1355397E-1,-3.409386E-2,1.6772261E-1,2.7180433E-1,-1.8976308E-1],"split_indices":[1,3,13,0,36,9,3,0,0,1,0,16,4,0,0,0,0,0,0],"split_type":[0,0,0,0,0,0,0,0,0,0,0,0,0,0,0,0,0,0,0],"sum_hessian":[2.1244993E3,1.4201457E2,1.9824847E3,3.5917866E0,1.3842279E2,1.47971E3,5.0277478E2,1.4176372E0,1.3700516E2,1.4265057E3,5.3204185E1,3.8248514E2,1.2028964E2,4.813131E2,9.451926E2,2.2921852E2,1.532666E2,1.15762405E2,4.5272384E0],"tree_param":{"num_deleted":"0","num_feature":"50","num_nodes":"19","size_leaf_vector":"1"}},{"base_weights":[-8.099218E-3,-2.628252E-1,2.6143768E-1,-6.1386753E-2,-1.3543361E0,4.6806118E-1,-7.521117E-1,-4.473706E-1,1.6446087E-1,6.551561E-2,-1.3767427E0,5.887245E-1,-1.2468386E0,8.0408716E-1,-1.2361244E0,2.4964523E-1,-1.308373E-1,1.8228287E-3,3.064445E-1,-4.1449952E-1,-2.9614663E-1,2.0815994E-1,-6.0935892E-2,-3.3918637E-1,2.0124456E-1,3.4821814E-1,-2.7091888E-1,-3.323435E-1,5.617953E-1],"categories":[],"categories_nodes":[],"categories_segments":[],"categories_sizes":[],"default_left":[0,0,0,0,0,0,0,0,0,0,0,0,0,0,0,0,0,0,0,0,0,0,0,0,0,0,0,0,0],"id":10,"left_children":[1,3,5,7,9,11,13,15,17,-1,19,21,23,25,27,-1,-1,-1,-1,-1,-1,-1,-1,-1,-1,-1,-1,-1,-1],"loss_changes":[1.4042532E2,2.3003117E2,2.0771204E2,7.807698E1,7.505127E0,1.7075728E2,1.27530045E2,4.411808E1,9.508802E1,0E0,3.2472534E0,1.7384546E2,1.8231804E1,4.9728836E1,6.129268E1,0E0,0E0,0E0,0E0,0E0,0E0,0E0,0E0,0E0,0E0,0E0,0E0,0E0,0E0],"parents":[2147483647,0,0,1,1,2,2,3,3,4,4,5,5,6,6,7,7,8,8,10,10,11,11,12,12,13,13,14,14],"right_children":[2,4,6,8,10,12,14,16,18,-1,20,22,24,26,28,-1,-1,-1,-1,-1,-1,-1,-1,-1,-1,-1,-1,-1,-1],"split_conditions":[7.55E1,7.3E1,7.4E1,-2.1927671E0,3.2E1,1E0,1.67E2,5.8E1,1E0,6.551561E-2,3.8E1,4.4745216E0,6.6E1,7.6E1,1E0,2.4964523E-1,-1.308373E-1,1.8228287E-3,3.064445E-1,-4.1449952E-1,-2.9614663E-1,2.0815994E-1,-6.0935892E-2,-3.3918637E-1,2.0124456E-1,3.4821814E-1,-2.7091888E-1,-3.323435E-1,5.617953E-1],"split_indices":[6,6,2,43,2,17,3,6,20,0,2,18,2,2,10,0,0,0,0,0,0,0,0,0,0,0,0,0,0],"split_type":[0,0,0,0,0,0,0,0,0,0,0,0,0,0,0,0,0,0,0,0,0,0,0,0,0,0,0,0,0],"sum_hessian":[2.0433242E3,1.0526155E3,9.9070874E2,8.903273E2,1.6228815E2,8.2426874E2,1.6644E2,3.3007947E2,5.602478E2,1.4019183E0,1.6088623E2,7.712724E2,5.2996292E1,3.879963E1,1.2764038E2,1.7810034E1,3.122694E2,4.9173904E2,6.85088E1,4.741044E1,1.13475784E2,5.861285E2,1.8514397E2,5.026722E1,2.7290738E0,2.9849903E1,8.949727E0,1.2399779E2,3.6425946E0],"tree_param":{"num_deleted":"0","num_feature":"50","num_nodes":"29","size_leaf_vector":"1"}},{"base_weights":[-6.097856E-3,-7.604327E-2,3.1454942E-1,2.7299199E-1,-1.6120285E-1,-6.03859E-1,7.825915E-2,2.2182891E-1,-1.7830265E-1,3.2639933E-1,-1.50349E-2],"categories":[],"categories_nodes":[],"categories_segments":[],"categories_sizes":[],"default_left":[0,0,0,0,0,0,0,0,0,0,0],"id":11,"left_children":[1,3,-1,-1,5,7,9,-1,-1,-1,-1],"loss_changes":[1.7289809E2,1.8485353E2,0E0,0E0,1.809342E2,1.1759752E2,1.9668477E2,0E0,0E0,0E0,0E0],"parents":[2147483647,0,0,1,1,4,4,5,5,6,6],"right_children":[2,4,-1,-1,6,8,10,-1,-1,-1,-1],"split_conditions":[3.2893333E1,2.209317E1,3.1454942E-1,2.7299199E-1,2.57E1,-5.7365513E0,2.64E1,2.2182891E-1,-1.7830265E-1,3.2639933E-1,-1.50349E-2],"split_indices":[0,0,0,0,0,1,0,0,0,0,0],"split_type":[0,0,0,0,0,0,0,0,0,0,0],"sum_hessian":[1.9154243E3,1.819222E3,9.620217E1,1.1908804E2,1.700134E3,5.9792236E2,1.1022117E3,4.579161E1,5.521308E2,1.0994275E2,9.922689E2],"tree_param":{"num_deleted":"0","num_feature":"50","num_nodes":"11","size_leaf_vector":"1"}},{"base_weights":[2.134731E-2,-1.2205507E-1,3.2341003E-1,-1.5635704E-1,3.2336268E-1,4.2738947E-1,-5.177112E-1,-9.8854885E-2,-1.3979436E0,6.3045156E-1,-9.790004E-2,-9.325255E-1,4.9038407E-1,-3.7533674E-2,2.9507834E-1,-6.2503695E-1,-3.029608E-1,-2.0329066E-1,1.7203656E-1,-1.4511278E-1,1.0407269E-1,8.314251E-2,-2.719267E-1,-0E0,2.3722386E-1],"categories":[],"categories_nodes":[],"categories_segments":[],"categories_sizes":[],"default_left":[0,0,0,0,0,0,0,0,0,0,0,0,0,0,0,0,0,0,0,0,0,0,0,0,0],"id":12,"left_children":[1,3,5,7,-1,9,11,13,15,17,19,21,23,-1,-1,-1,-1,-1,-1,-1,-1,-1,-1,-1,-1],"loss_changes":[7.866855E1,5.994013E1,5.1318157E1,8.383772E1,0E0,5.6395866E1,2.7560503E1,8.248338E1,2.067833E0,4.300824E1,3.84551E1,1.2126419E1,5.4222646E0,0E0,0E0,0E0,0E0,0E0,0E0,0E0,0E0,0E0,0E0,0E0,0E0],"parents":[2147483647,0,0,1,1,2,2,3,3,5,5,6,6,7,7,8,8,9,9,10,10,11,11,12,12],"right_children":[2,4,6,8,-1,10,12,14,16,18,20,22,24,-1,-1,-1,-1,-1,-1,-1,-1,-1,-1,-1,-1],"split_conditions":[1.7211348E0,1.12E2,1E0,1.08E2,3.2336268E-1,1.0794924E1,1.7E2,1E2,1.87E2,-1.7552977E1,6.8E1,-1.1610952E1,1.5003405E0,-3.7533674E-2,2.9507834E-1,-6.2503695E-1,-3.029608E-1,-2.0329066E-1,1.7203656E-1,-1.4511278E-1,1.0407269E-1,8.314251E-2,-2.719267E-1,-0E0,2.3722386E-1],"split_indices":[13,6,15,6,0,12,3,6,3,12,6,12,31,0,0,0,0,0,0,0,0,0,0,0,0],"split_type":[0,0,0,0,0,0,0,0,0,0,0,0,0,0,0,0,0,0,0,0,0,0,0,0,0],"sum_hessian":[1.8092164E3,1.2247467E3,5.844697E2,1.1980447E3,2.670199E1,5.217437E2,6.2726044E1,1.1468538E3,5.119091E1,3.77639E2,1.441047E2,4.52569E1,1.7469145E1,1.1019772E3,4.487665E1,3.3095067E0,4.7881405E1,1.7592344E1,3.6004666E2,7.495566E1,6.914905E1,4.8931985E0,4.03637E1,8.072454E0,9.396689E0],"tree_param":{"num_deleted":"0","num_feature":"50","num_nodes":"25","size_leaf_vector":"1"}},{"base_weights":[8.634769E-3,1.4042798E-1,-4.3124533E-1,8.30674E-1,1.888403E-2,-2.0187001E-1,-1.0606161E0,2.9722002E-1,9.649975E-1,1.997006E-1,-4.8176593E-1,-5.473805E-1,1.0152526E0,1.8767534E-1,-1.2309825E0,2.4133341E-1,-5.601849E-2,1.801085E-2,2.7207157E-1,-2.0363037E-2,2.2618133E-1,-2.076484E-1,1.9702642E-1,-3.2721153E-1,-3.918607E-2,3.5312143E-1,-2.53968E-1,-3.068873E-1,4.1681617E-2],"categories":[],"categories_nodes":[],"categories_segments":[],"categories_sizes":[],"default_left":[0,0,0,0,0,0,0,0,0,0,0,0,0,0,0,0,0,0,0,0,0,0,0,0,0,0,0,0,0],"id":13,"left_children":[1,3,5,7,9,11,13,15,17,19,21,23,25,-1,27,-1,-1,-1,-1,-1,-1,-1,-1,-1,-1,-1,-1,-1,-1],"loss_changes":[1.0193615E2,1.1307541E2,5.6843903E1,1.2829529E1,1.04604454E2,1.25803024E2,3.469535E1,1.7061928E1,2.0398926E1,1.7746089E2,1.4761493E2,7.033767E1,6.0997406E1,0E0,5.604538E0,0E0,0E0,0E0,0E0,0E0,0E0,0E0,0E0,0E0,0E0,0E0,0E0,0E0,0E0],"parents":[2147483647,0,0,1,1,2,2,3,3,4,4,5,5,6,6,7,7,8,8,9,9,10,10,11,11,12,12,14,14],"right_children":[2,4,6,8,10,12,14,16,18,20,22,24,26,-1,28,-1,-1,-1,-1,-1,-1,-1,-1,-1,-1,-1,-1,-1,-1],"split_conditions":[1E0,-4.103621E0,8.9E1,6.6E1,1.35455E1,7.6E1,-3.1676306E1,1.56E2,-1.3528751E1,-2.8473415E0,8.2E1,1.57E2,1E0,1.8767534E-1,1.12E2,2.4133341E-1,-5.601849E-2,1.801085E-2,2.7207157E-1,-2.0363037E-2,2.2618133E-1,-2.076484E-1,1.9702642E-1,-3.2721153E-1,-3.918607E-2,3.5312143E-1,-2.53968E-1,-3.068873E-1,4.1681617E-2],"split_indices":[4,18,6,6,12,6,12,3,12,12,6,3,8,0,6,0,0,0,0,0,0,0,0,0,0,0,0,0,0],"split_type":[0,0,0,0,0,0,0,0,0,0,0,0,0,0,0,0,0,0,0,0,0,0,0,0,0,0,0,0,0],"sum_hessian":[1.7618152E3,1.3580608E3,4.0375443E2,2.0114482E2,1.156916E3,2.9811642E2,1.0563801E2,4.2718037E1,1.5842677E2,8.519729E2,3.0494305E2,2.333131E2,6.480332E1,8.152724E0,9.748528E1,1.895848E1,2.3759556E1,2.4518042E1,1.3390874E2,6.1326166E2,2.3871127E2,2.3769879E2,6.7244255E1,7.442339E1,1.5888971E2,5.4147053E1,1.065627E1,9.626743E1,1.2178491E0],"tree_param":{"num_deleted":"0","num_feature":"50","num_nodes":"29","size_leaf_vector":"1"}},{"base_weights":[-8.349265E-3,-6.596447E-2,2.7161714E-1,9.4010866E-1,-1.2802467E-1,-1.2513463E-1,1.0042307E0,-1.5790457E-1,2.8619704E-1,2.5457156E-1,-3.1919014E-2,-2.8755588E-2,-3.2220086E-1],"categories":[],"categories_nodes":[],"categories_segments":[],"categories_sizes":[],"default_left":[0,0,0,0,0,0,0,0,0,0,0,0,0],"id":14,"left_children":[1,3,-1,5,7,-1,9,11,-1,-1,-1,-1,-1],"loss_changes":[1.0616497E2,9.7628586E1,0E0,9.489655E0,5.6998764E1,0E0,5.339096E0,6.5649086E1,0E0,0E0,0E0,0E0,0E0],"parents":[2147483647,0,0,1,1,3,3,4,4,6,6,7,7],"right_children":[2,4,-1,6,8,-1,10,12,-1,-1,-1,-1,-1],"split_conditions":[1E0,-1.2707703E1,2.7161714E-1,-1.1854847E1,1.12E2,-1.2513463E-1,1.4214695E1,1.08E2,2.8619704E-1,2.5457156E-1,-3.1919014E-2,-2.8755588E-2,-3.2220086E-1],"split_indices":[9,1,0,11,6,0,13,6,0,0,0,0,0],"split_type":[0,0,0,0,0,0,0,0,0,0,0,0,0],"sum_hessian":[1.6537534E3,1.5749626E3,7.879074E1,8.96911E1,1.4852716E3,2.782431E0,8.690867E1,1.4536605E3,3.1611052E1,8.479389E1,2.1147733E0,1.4077455E3,4.5915123E1],"tree_param":{"num_deleted":"0","num_feature":"50","num_nodes":"13","size_leaf_vector":"1"}},{"base_weights":[3.6543459E-3,2.6584166E-1,-6.753308E-2,-4.9380952E-1,1.4008507E-1,-7.0896065E-1,3.2288095E-1,3.101355E-1,2.9834298E-2,1.8848448E-1,-1.9994028E-1,-1.1790305E-1,2.3610243E-1,6.5533616E-2,-1.3429981E-1],"categories":[],"categories_nodes":[],"categories_segments":[],"categories_sizes":[],"default_left":[0,0,0,0,0,0,0,0,0,0,0,0,0,0,0],"id":15,"left_children":[1,-1,3,5,7,9,11,-1,13,-1,-1,-1,-1,-1,-1],"loss_changes":[1.25896324E2,0E0,1.3407498E2,8.787264E1,1.2544052E2,6.671127E1,5.491492E1,0E0,1.2895778E2,0E0,0E0,0E0,0E0,0E0,0E0],"parents":[2147483647,0,0,2,2,3,3,4,4,5,5,6,6,8,8],"right_children":[2,-1,4,6,8,10,12,-1,14,-1,-1,-1,-1,-1,-1],"split_conditions":[2.209317E1,2.6584166E-1,2.57E1,1.8773369E0,2.64E1,-6.944403E0,2.3038752E1,3.101355E-1,1E0,1.8848448E-1,-1.9994028E-1,-1.1790305E-1,2.3610243E-1,6.5533616E-2,-1.3429981E-1],"split_indices":[0,0,0,19,0,1,0,0,4,0,0,0,0,0,0],"split_type":[0,0,0,0,0,0,0,0,0,0,0,0,0,0,0],"sum_hessian":[1.6075598E3,9.8715866E1,1.508844E3,4.9546945E2,1.0133745E3,3.9331522E2,1.0215425E2,8.7959366E1,9.254151E2,2.672601E1,3.665892E2,4.4824173E1,5.7330082E1,6.5724005E2,2.6817505E2],"tree_param":{"num_deleted":"0","num_feature":"50","num_nodes":"15","size_leaf_vector":"1"}},{"base_weights":[1.3039898E-2,2.5788248E-1,-4.400183E-2,-4.307654E-1,1.3740644E-1,6.2471074E-1,-5.493704E-1,2.9351473E-1,4.974303E-2,-1.0716189E-1,2.5924075E-1,-1.7973664E-1,1.7633963E-2,5.8113724E-2,-1.0415749E-1],"categories":[],"categories_nodes":[],"categories_segments":[],"categories_sizes":[],"default_left":[0,0,0,0,0,0,0,0,0,0,0,0,0,0,0],"id":16,"left_children":[1,-1,3,5,7,9,11,-1,13,-1,-1,-1,-1,-1,-1],"loss_changes":[9.019601E1,0E0,9.9578415E1,5.7032425E1,8.866342E1,2.2432554E1,4.8982864E1,0E0,8.0368E1,0E0,0E0,0E0,0E0,0E0,0E0],"parents":[2147483647,0,0,2,2,3,3,4,4,5,5,6,6,8,8],"right_children":[2,-1,4,6,8,10,12,-1,14,-1,-1,-1,-1,-1,-1],"split_conditions":[2.209317E1,2.5788248E-1,2.57E1,-4.8567357E0,2.64E1,7E1,1.44225E0,2.9351473E-1,1E0,-1.0716189E-1,2.5924075E-1,-1.7973664E-1,1.7633963E-2,5.8113724E-2,-1.0415749E-1],"split_indices":[0,0,0,18,0,6,19,0,4,0,0,0,0,0,0],"split_type":[0,0,0,0,0,0,0,0,0,0,0,0,0,0,0],"sum_hessian":[1.4900109E3,7.709068E1,1.4129202E3,4.5261505E2,9.603052E2,4.4377247E1,4.0823782E2,7.089696E1,8.894082E2,1.2267982E1,3.2109264E1,3.1411783E2,9.411998E1,6.3919574E2,2.5021243E2],"tree_param":{"num_deleted":"0","num_feature":"50","num_nodes":"15","size_leaf_vector":"1"}},{"base_weights":[-4.2163017E-3,-5.664878E-2,2.6760945E-1,-1.6332692E-1,5.3449553E-1,-2.848057E-1,2.1116912E-1,7.702427E-1,-6.8517417E-1,-1.09216586E-1,3.7869972E-3,1.2972865E-1,-6.751855E-3,2.6529533E-1,4.493783E-2,-2.774374E-1,1.1080898E-1],"categories":[],"categories_nodes":[],"categories_segments":[],"categories_sizes":[],"default_left":[0,0,0,0,0,0,0,0,0,0,0,0,0,0,0,0,0],"id":17,"left_children":[1,3,-1,5,7,9,11,13,15,-1,-1,-1,-1,-1,-1,-1,-1],"loss_changes":[8.18853E1,8.606415E1,0E0,5.3034317E1,6.043253E1,4.3889145E1,2.2353474E1,3.133863E1,1.8628235E1,0E0,0E0,0E0,0E0,0E0,0E0,0E0,0E0],"parents":[2147483647,0,0,1,1,3,3,4,4,5,5,6,6,7,7,8,8],"right_children":[2,4,-1,6,8,10,12,14,16,-1,-1,-1,-1,-1,-1,-1,-1],"split_conditions":[1E0,1E0,2.6760945E-1,2.011873E0,1E0,7.6E1,-1.6576602E-1,3.1203663E-1,-1.7189372E0,-1.09216586E-1,3.7869972E-3,1.2972865E-1,-6.751855E-3,2.6529533E-1,4.493783E-2,-2.774374E-1,1.1080898E-1],"split_indices":[9,5,0,16,21,6,32,1,23,0,0,0,0,0,0,0,0],"split_type":[0,0,0,0,0,0,0,0,0,0,0,0,0,0,0,0,0],"sum_hessian":[1.4319437E3,1.3688518E3,6.309194E1,1.1617468E3,2.0710497E2,8.7957275E2,2.8217407E2,1.746061E2,3.249887E1,5.708169E2,3.0875586E2,1.2160724E2,1.6056683E2,1.1112841E2,6.3477684E1,2.391127E1,8.5876E0],"tree_param":{"num_deleted":"0","num_feature":"50","num_nodes":"17","size_leaf_vector":"1"}},{"base_weights":[1.7187688E-2,2.5211823E-1,-3.1497367E-2,-7.99955E-2,2.6554608E-1,-1.307007E-1,2.588827E-1,-1.8735869E-1,-8.158604E-3],"categories":[],"categories_nodes":[],"categories_segments":[],"categories_sizes":[],"default_left":[0,0,0,0,0,0,0,0,0],"id":18,"left_children":[1,-1,3,5,-1,7,-1,-1,-1],"loss_changes":[6.941723E1,0E0,7.0523415E1,7.2272E1,0E0,7.423087E1,0E0,0E0,0E0],"parents":[2147483647,0,0,2,2,3,3,5,5],"right_children":[2,-1,4,6,-1,8,-1,-1,-1],"split_conditions":[2.209317E1,2.5211823E-1,3.2893333E1,1E0,2.6554608E-1,2.3038752E1,2.588827E-1,-1.8735869E-1,-8.158604E-3],"split_indices":[0,0,0,9,0,0,0,0,0],"split_type":[0,0,0,0,0,0,0,0,0],"sum_hessian":[1.375393E3,6.283155E1,1.3125614E3,1.2600173E3,5.254407E1,1.2082799E3,5.1737488E1,1.5701958E2,1.0512604E3],"tree_param":{"num_deleted":"0","num_feature":"50","num_nodes":"9","size_leaf_vector":"1"}},{"base_weights":[2.101775E-2,6.030276E-2,-3.1994122E-1,2.5979218E-1,6.741573E-3,8.495738E-1,-5.3021986E-2,2.4852523E-1,-1.4291476E-2,-2.790187E-1,3.9045936E-3],"categories":[],"categories_nodes":[],"categories_segments":[],"categories_sizes":[],"default_left":[0,0,0,0,0,0,0,0,0,0,0],"id":19,"left_children":[1,3,-1,-1,5,7,9,-1,-1,-1,-1],"loss_changes":[6.788496E1,6.800485E1,0E0,0E0,6.2325542E1,1.3916012E1,8.724952E1,0E0,0E0,0E0,0E0],"parents":[2147483647,0,0,1,1,4,4,5,5,6,6],"right_children":[2,4,-1,-1,6,8,10,-1,-1,-1,-1],"split_conditions":[8.4E1,1.55E2,-3.1994122E-1,2.5979218E-1,-1.079269E1,6.1E1,3.4E1,2.4852523E-1,-1.4291476E-2,-2.790187E-1,3.9045936E-3],"split_indices":[2,3,0,0,1,2,2,0,0,0,0],"split_type":[0,0,0,0,0,0,0,0,0,0,0],"sum_hessian":[1.3169023E3,1.2809799E3,3.5922558E1,6.270502E1,1.2182748E3,8.1024445E1,1.1372504E3,6.903202E1,1.1992424E1,6.758364E1,1.0696667E3],"tree_param":{"num_deleted":"0","num_feature":"50","num_nodes":"11","size_leaf_vector":"1"}},{"base_weights":[1.5260796E-4,1.3941886E-1,-4.2392558E-1,4.3633543E-2,3.09277E-1,1.0995938E0,-7.1370465E-1,-2.909548E-1,2.4927524E-1,6.6083896E-1,7.725555E-1,-9.4182503E-1,9.9521875E-2,2.4398233E-1,-1.1655361E-1,-2.1024619E-1,9.0577796E-2,3.398455E-1,-2.1764402E-1,-2.708313E-1,4.5594867E-2,3.3310068E-1,-1.937539E-1],"categories":[],"categories_nodes":[],"categories_segments":[],"categories_sizes":[],"default_left":[0,0,0,0,0,0,0,0,0,0,0,0,0,0,0,0,0,0,0,0,0,0,0],"id":20,"left_children":[1,3,5,7,-1,9,11,13,15,17,-1,19,21,-1,-1,-1,-1,-1,-1,-1,-1,-1,-1],"loss_changes":[7.590964E1,1.0405012E2,1.4033809E2,6.1907112E1,0E0,3.974526E1,5.0655533E1,8.284922E1,7.644103E1,5.134771E1,0E0,4.188826E1,6.817862E1,0E0,0E0,0E0,0E0,0E0,0E0,0E0,0E0,0E0,0E0],"parents":[2147483647,0,0,1,1,2,2,3,3,5,5,6,6,7,7,8,8,9,9,11,11,12,12],"right_children":[2,4,6,8,-1,10,12,14,16,18,-1,20,22,-1,-1,-1,-1,-1,-1,-1,-1,-1,-1],"split_conditions":[6.9E1,1E0,2.37E1,2.546401E1,3.09277E-1,1E0,2.904657E1,2.209317E1,3.4E1,7.7E1,7.725555E-1,7.7E1,3.0273712E1,2.4398233E-1,-1.1655361E-1,-2.1024619E-1,9.0577796E-2,3.398455E-1,-2.1764402E-1,-2.708313E-1,4.5594867E-2,3.3310068E-1,-1.937539E-1],"split_indices":[2,25,0,0,0,4,0,0,2,2,0,2,0,0,0,0,0,0,0,0,0,0,0],"split_type":[0,0,0,0,0,0,0,0,0,0,0,0,0,0,0,0,0,0,0,0,0,0,0],"sum_hessian":[1.2886106E3,9.724725E2,3.1613812E2,8.9841223E2,7.4060265E1,4.9487667E1,2.6665045E2,3.3981622E2,5.58596E2,4.2341446E1,7.14622E0,2.0916371E2,5.7486744E1,4.1871807E1,2.979444E2,5.4122303E1,5.0447372E2,2.9282991E1,1.3058456E1,1.82446E2,2.6717726E1,2.4074133E1,3.3412613E1],"tree_param":{"num_deleted":"0","num_feature":"50","num_nodes":"23","size_leaf_vector":"1"}},{"base_weights":[5.3951843E-3,-2.9397087E-2,2.5248995E-1,2.9184276E-1,-1.323835E-1,5.950489E-1,-2.1769953E-1,-1.8744358E-1,6.304208E-1,1.77251E-1,-0E0,-8.4304206E-2,1.5899506E-1,-9.405492E-2,1.0451476E-2,-3.370121E-2,2.2321622E-1],"categories":[],"categories_nodes":[],"categories_segments":[],"categories_sizes":[],"default_left":[0,0,0,0,0,0,0,0,0,0,0,0,0,0,0,0,0],"id":21,"left_children":[1,3,-1,5,7,9,11,13,15,-1,-1,-1,-1,-1,-1,-1,-1],"loss_changes":[4.4834652E1,3.8801884E1,0E0,4.433011E1,3.7200237E1,1.378183E1,1.1683906E1,3.876956E1,1.4021208E1,0E0,0E0,0E0,0E0,0E0,0E0,0E0,0E0],"parents":[2147483647,0,0,1,1,3,3,4,4,5,5,6,6,7,7,8,8],"right_children":[2,4,-1,6,8,10,12,14,16,-1,-1,-1,-1,-1,-1,-1,-1],"split_conditions":[1E0,-1.9486655E0,2.5248995E-1,1.3538462E0,5.9920473E0,8.6E1,1.0329643E1,1E0,-8.253804E-1,1.77251E-1,-0E0,-8.4304206E-2,1.5899506E-1,-9.405492E-2,1.0451476E-2,-3.370121E-2,2.2321622E-1],"split_indices":[9,32,0,28,13,6,44,10,49,0,0,0,0,0,0,0,0],"split_type":[0,0,0,0,0,0,0,0,0,0,0,0,0,0,0,0,0],"sum_hessian":[1.2157451E3,1.1760023E3,3.9742836E1,2.824903E2,8.93512E2,1.7834213E2,1.0414818E2,8.3537305E2,5.8138966E1,1.4459776E2,3.3744366E1,9.232946E1,1.1818714E1,4.5024182E2,3.8513123E2,1.4910873E1,4.3228092E1],"tree_param":{"num_deleted":"0","num_feature":"50","num_nodes":"17","size_leaf_vector":"1"}},{"base_weights":[-4.2597977E-3,-7.526214E-2,4.568539E-1,-1.09958984E-1,2.443511E-1,6.8297106E-1,-7.1066207E-1,-2.9858187E-1,7.306028E-2,1.0508146E0,-5.049923E-2,-2.6947504E-1,1.7181614E-1,1.3813075E-1,-8.447128E-2,-8.2090355E-2,4.1320026E-2,2.6358283E-1,-1.1856554E-2,-1.1679005E-1,2.4753782E-1],"categories":[],"categories_nodes":[],"categories_segments":[],"categories_sizes":[],"default_left":[0,0,0,0,0,0,0,0,0,0,0,0,0,0,0,0,0,0,0,0,0],"id":22,"left_children":[1,3,5,7,-1,9,11,13,15,17,19,-1,-1,-1,-1,-1,-1,-1,-1,-1,-1],"loss_changes":[3.8787067E1,3.8077663E1,4.2079357E1,3.5102516E1,0E0,3.7135895E1,1.5418841E1,2.1021992E1,2.0135212E1,4.404312E0,2.0301468E1,0E0,0E0,0E0,0E0,0E0,0E0,0E0,0E0,0E0,0E0],"parents":[2147483647,0,0,1,1,2,2,3,3,5,5,6,6,7,7,8,8,9,9,10,10],"right_children":[2,4,6,8,-1,10,12,14,16,18,20,-1,-1,-1,-1,-1,-1,-1,-1,-1,-1],"split_conditions":[1E0,1E0,1E0,-2.2292696E-1,2.443511E-1,1.7842257E0,1E0,-8.369381E0,6.7E1,6.2697744E0,7.4E1,-2.6947504E-1,1.7181614E-1,1.3813075E-1,-8.447128E-2,-8.2090355E-2,4.1320026E-2,2.6358283E-1,-1.1856554E-2,-1.1679005E-1,2.4753782E-1],"split_indices":[5,9,21,16,0,28,14,30,6,26,6,0,0,0,0,0,0,0,0,0,0],"split_type":[0,0,0,0,0,0,0,0,0,0,0,0,0,0,0,0,0,0,0,0,0],"sum_hessian":[1.1954042E3,1.0386469E3,1.5675737E2,1.0081285E3,3.0518354E1,1.3244215E2,2.4315214E1,4.990939E2,5.0903458E2,8.89158E1,4.3526356E1,1.9759167E1,4.5560474E0,2.4788546E1,4.7430536E2,9.451323E1,4.1452133E2,8.732843E1,1.5873693E0,3.2149128E1,1.1377228E1],"tree_param":{"num_deleted":"0","num_feature":"50","num_nodes":"21","size_leaf_vector":"1"}},{"base_weights":[1.130443E-2,-2.8616551E-2,2.5666386E-1,2.4063669E-1,-6.619728E-2,1.792444E-1,-2.3720422E-1,-2.3033878E-2,2.2527044E-1,-2.683054E-1,-3.1792488E-2],"categories":[],"categories_nodes":[],"categories_segments":[],"categories_sizes":[],"default_left":[0,0,0,0,0,0,0,0,0,0,0],"id":23,"left_children":[1,3,-1,-1,5,7,9,-1,-1,-1,-1],"loss_changes":[4.934108E1,4.1665928E1,0E0,0E0,4.527764E1,9.096786E1,5.728763E1,0E0,0E0,0E0,0E0],"parents":[2147483647,0,0,1,1,4,4,5,5,6,6],"right_children":[2,4,-1,-1,6,8,10,-1,-1,-1,-1],"split_conditions":[3.2893333E1,2.209317E1,2.5666386E-1,2.4063669E-1,1.68E2,1.63E2,2.3038752E1,-2.3033878E-2,2.2527044E-1,-2.683054E-1,-3.1792488E-2],"split_indices":[0,0,0,0,3,3,0,0,0,0,0],"split_type":[0,0,0,0,0,0,0,0,0,0,0],"sum_hessian":[1.1556992E3,1.1130259E3,4.267337E1,3.772902E1,1.0752969E3,4.389157E2,6.3638116E2,3.206704E2,1.1824531E2,6.761393E1,5.687672E2],"tree_param":{"num_deleted":"0","num_feature":"50","num_nodes":"11","size_leaf_vector":"1"}},{"base_weights":[1.9393645E-2,5.42732E-2,-2.8834248E-1,2.5026783E-1,1.2974226E-2,-8.857789E-1,7.327094E-2,1.2982124E-1,-2.5992808E-1,3.177545E-1,4.8212823E-3],"categories":[],"categories_nodes":[],"categories_segments":[],"categories_sizes":[],"default_left":[0,0,0,0,0,0,0,0,0,0,0],"id":24,"left_children":[1,3,-1,-1,5,7,9,-1,-1,-1,-1],"loss_changes":[4.572168E1,4.2573864E1,0E0,0E0,5.5770367E1,1.7881992E1,6.3156914E1,0E0,0E0,0E0,0E0],"parents":[2147483647,0,0,1,1,4,4,5,5,6,6],"right_children":[2,4,-1,-1,6,8,10,-1,-1,-1,-1],"split_conditions":[8.4E1,1.55E2,-2.8834248E-1,2.5026783E-1,1.57E2,-1.0066551E1,1.58E2,1.2982124E-1,-2.5992808E-1,3.177545E-1,4.8212823E-3],"split_indices":[2,3,0,0,3,12,3,0,0,0,0],"split_type":[0,0,0,0,0,0,0,0,0,0,0],"sum_hessian":[1.1150488E3,1.0854498E3,2.9599014E1,4.2118183E1,1.0433317E3,6.362545E1,9.7970624E2,6.361679E0,5.726377E1,3.8921284E1,9.40785E2],"tree_param":{"num_deleted":"0","num_feature":"50","num_nodes":"11","size_leaf_vector":"1"}},{"base_weights":[-0E0,2.9610243E-1,-3.132075E-2,-1.3191624E0,3.2692183E-2,-1.3674164E0,4.7021154E-3,1.20917596E-1,-4.004244E-1,-1.4124531E-2,-3.44354E-1,7.3415354E-2,-1.0659328E-1,4.102952E-1,-1.4599411E-1],"categories":[],"categories_nodes":[],"categories_segments":[],"categories_sizes":[],"default_left":[0,0,0,0,0,0,0,0,0,0,0,0,0,0,0],"id":25,"left_children":[1,-1,3,5,7,9,-1,11,13,-1,-1,-1,-1,-1,-1],"loss_changes":[4.1342308E1,0E0,8.935174E1,4.8090515E0,3.8565624E1,1.4818039E0,0E0,8.560983E1,7.067003E1,0E0,0E0,0E0,0E0,0E0,0E0],"parents":[2147483647,0,0,2,2,3,3,4,4,5,5,7,7,8,8],"right_children":[2,-1,4,6,8,10,-1,12,14,-1,-1,-1,-1,-1,-1],"split_conditions":[2.7E1,2.9610243E-1,3.4E1,2.65E1,1E0,1E0,4.7021154E-3,6.9E1,2.26E1,-1.4124531E-2,-3.44354E-1,7.3415354E-2,-1.0659328E-1,4.102952E-1,-1.4599411E-1],"split_indices":[2,0,2,0,15,7,0,2,0,0,0,0,0,0,0],"split_type":[0,0,0,0,0,0,0,0,0,0,0,0,0,0,0],"sum_hessian":[1.0916146E3,2.6232277E1,1.0653823E3,5.035387E1,1.0150285E3,4.9367092E1,9.867762E-1,8.4592773E2,1.6910072E2,2.6257527E0,4.674134E1,6.409716E2,2.0495615E2,1.3660343E1,1.5544037E2],"tree_param":{"num_deleted":"0","num_feature":"50","num_nodes":"15","size_leaf_vector":"1"}},{"base_weights":[1.0847381E-2,-2.2931678E-2,2.508293E-1,6.561624E-2,-5.0009376E-1,4.5880258E-1,-1.4735888E-1,2.7794003E-1,-8.239233E-1,-3.4713086E-2,1.8241341E-1,-1.06871955E-1,3.2334704E-2,-2.0170595E-1,1.9634764E-1,-2.3715025E-1,3.5530862E-1],"categories":[],"categories_nodes":[],"categories_segments":[],"categories_sizes":[],"default_left":[0,0,0,0,0,0,0,0,0,0,0,0,0,0,0,0,0],"id":26,"left_children":[1,3,-1,5,7,9,11,13,15,-1,-1,-1,-1,-1,-1,-1,-1],"loss_changes":[3.71997E1,4.331894E1,0E0,7.188662E1,4.1291508E1,5.3618504E1,4.5608223E1,2.812666E1,4.0373276E1,0E0,0E0,0E0,0E0,0E0,0E0,0E0,0E0],"parents":[2147483647,0,0,1,1,3,3,4,4,5,5,6,6,7,7,8,8],"right_children":[2,4,-1,6,8,10,12,14,16,-1,-1,-1,-1,-1,-1,-1,-1],"split_conditions":[3.2893333E1,1.8512667E1,2.508293E-1,1.68E2,2.65E1,2.4858366E1,1.73E2,2.2125584E1,1E0,-3.4713086E-2,1.8241341E-1,-1.06871955E-1,3.2334704E-2,-2.0170595E-1,1.9634764E-1,-2.3715025E-1,3.5530862E-1],"split_indices":[0,1,0,3,0,0,3,1,7,0,0,0,0,0,0,0,0],"split_type":[0,0,0,0,0,0,0,0,0,0,0,0,0,0,0,0,0],"sum_hessian":[1.0459739E3,1.0123344E3,3.3639545E1,8.5265784E2,1.5967653E2,3.009859E2,5.5167194E2,4.597943E1,1.13697105E2,9.7079445E1,2.0390645E2,2.7184637E2,2.7982556E2,1.4026227E1,3.1953203E1,1.07621475E2,6.0756254E0],"tree_param":{"num_deleted":"0","num_feature":"50","num_nodes":"17","size_leaf_vector":"1"}},{"base_weights":[-8.178873E-3,2.8649056E-1,-3.755369E-2,-1.1581585E0,1.3540253E-2,-1.2202559E0,2.5157945E-2,1.2802601E-1,-3.516395E-1,-1.6397601E-2,-3.1066668E-1,-3.751484E-2,1.1608611E-1,1.5037902E-2,-2.8811353E-1],"categories":[],"categories_nodes":[],"categories_segments":[],"categories_sizes":[],"default_left":[0,0,0,0,0,0,0,0,0,0,0,0,0,0,0],"id":27,"left_children":[1,-1,3,5,7,9,-1,11,13,-1,-1,-1,-1,-1,-1],"loss_changes":[3.3857426E1,0E0,5.759864E1,4.774002E0,3.9143764E1,1.2442398E0,0E0,7.131539E1,7.792559E1,0E0,0E0,0E0,0E0,0E0,0E0],"parents":[2147483647,0,0,2,2,3,3,4,4,5,5,7,7,8,8],"right_children":[2,-1,4,6,8,10,-1,12,14,-1,-1,-1,-1,-1,-1],"split_conditions":[2.7E1,2.8649056E-1,3.4E1,2.65E1,1E0,1E0,2.5157945E-2,1E0,6.4E1,-1.6397601E-2,-3.1066668E-1,-3.751484E-2,1.1608611E-1,1.5037902E-2,-2.8811353E-1],"split_indices":[2,0,2,0,8,7,0,10,2,0,0,0,0,0,0],"split_type":[0,0,0,0,0,0,0,0,0,0,0,0,0,0,0],"sum_hessian":[1.00546216E3,2.2493097E1,9.8296906E2,4.2878044E1,9.40091E2,4.1719772E1,1.1582713E0,7.1846204E2,2.2162897E2,2.9570003E0,3.876277E1,3.9587686E2,3.2258517E2,1.4781845E2,7.381052E1],"tree_param":{"num_deleted":"0","num_feature":"50","num_nodes":"15","size_leaf_vector":"1"}},{"base_weights":[4.956312E-3,3.7445426E-2,-2.6993456E-1,8.5354304E-1,-0E0,-0E0,2.2970724E-1,-3.1347476E-2,2.4317148E-1,-5.5212285E-2,2.9828636E-2],"categories":[],"categories_nodes":[],"categories_segments":[],"categories_sizes":[],"default_left":[0,0,0,0,0,0,0,0,0,0,0],"id":28,"left_children":[1,3,-1,5,7,-1,-1,9,-1,-1,-1],"loss_changes":[3.3806393E1,2.8244123E1,0E0,3.403576E0,2.8744755E1,0E0,0E0,2.6423954E1,0E0,0E0,0E0],"parents":[2147483647,0,0,1,1,3,3,4,4,7,7],"right_children":[2,4,-1,6,8,-1,-1,10,-1,-1,-1],"split_conditions":[8.4E1,-1.1537767E1,-2.6993456E-1,-3.612005E0,3.2893333E1,-0E0,2.2970724E-1,-6.5691555E-1,2.4317148E-1,-5.5212285E-2,2.9828636E-2],"split_indices":[2,1,0,47,0,0,0,16,0,0,0],"split_type":[0,0,0,0,0,0,0,0,0,0,0],"sum_hessian":[9.638007E2,9.383609E2,2.5439808E1,3.960696E1,8.987539E2,3.6007307E0,3.600623E1,8.7181116E2,2.6942753E1,3.8688876E2,4.8492242E2],"tree_param":{"num_deleted":"0","num_feature":"50","num_nodes":"11","size_leaf_vector":"1"}},{"base_weights":[7.3124776E-3,7.9682715E-2,-4.0117764E-1,2.2395702E-1,-3.757484E-1,1.0221206E-1,-7.444558E-1,5.827248E-1,6.0585726E-2,-5.761454E-1,7.851703E-1,4.702508E-1,-4.8428997E-1,-9.7851866E-1,-0E0,2.4457227E-1,-6.544583E-2,-2.9653266E-1,4.2454556E-2,-1.9366209E-1,2.4491028E-1,-2.0974399E-1,4.608028E-1,-1.0993181E-1,2.0608996E-1,-2.1724324E-1,3.9065835E-1,-2.5363716E-1,4.5347862E-2,1.8230541E-1,-1.90895E-1],"categories":[],"categories_nodes":[],"categories_segments":[],"categories_sizes":[],"default_left":[0,0,0,0,0,0,0,0,0,0,0,0,0,0,0,0,0,0,0,0,0,0,0,0,0,0,0,0,0,0,0],"id":29,"left_children":[1,3,5,7,9,11,13,15,17,19,21,23,25,27,29,-1,-1,-1,-1,-1,-1,-1,-1,-1,-1,-1,-1,-1,-1,-1,-1],"loss_changes":[2.7640154E1,5.290929E1,2.5006447E1,3.530596E1,4.501131E1,1.2384729E1,1.3875618E1,6.9522835E1,6.1116074E1,5.8181263E1,5.3780804E1,1.3417467E1,1.8629135E1,5.8641205E0,1.3647945E1,0E0,0E0,0E0,0E0,0E0,0E0,0E0,0E0,0E0,0E0,0E0,0E0,0E0,0E0,0E0,0E0],"parents":[2147483647,0,0,1,1,2,2,3,3,4,4,5,5,6,6,7,7,8,8,9,9,10,10,11,11,12,12,13,13,14,14],"right_children":[2,4,6,8,10,12,14,16,18,20,22,24,26,28,30,-1,-1,-1,-1,-1,-1,-1,-1,-1,-1,-1,-1,-1,-1,-1,-1],"split_conditions":[1E0,1E0,4.327399E0,1.68E2,1.8706173E1,1.78E2,1E0,1E0,1.69E2,1E0,1.57E2,1.63E2,1.3641856E1,2.7522917E1,-1.7978607E1,2.4457227E-1,-6.544583E-2,-2.9653266E-1,4.2454556E-2,-1.9366209E-1,2.4491028E-1,-2.0974399E-1,4.608028E-1,-1.0993181E-1,2.0608996E-1,-2.1724324E-1,3.9065835E-1,-2.5363716E-1,4.5347862E-2,1.8230541E-1,-1.90895E-1],"split_indices":[15,4,18,3,12,3,4,8,3,25,3,3,1,1,12,0,0,0,0,0,0,0,0,0,0,0,0,0,0,0,0],"split_type":[0,0,0,0,0,0,0,0,0,0,0,0,0,0,0,0,0,0,0,0,0,0,0,0,0,0,0,0,0,0,0],"sum_hessian":[9.4480273E2,8.055367E2,1.39266E2,6.139352E2,1.9160155E2,5.5454124E1,8.3811874E1,1.8922835E2,4.2470682E2,1.6461281E2,2.6988739E1,3.533221E1,2.0121916E1,6.2594852E1,2.1217024E1,1.2721527E2,6.201308E1,3.3173176E1,3.9153363E2,1.4556052E2,1.9052294E1,1.0550144E1,1.6438595E1,9.356331E0,2.597588E1,1.77312E1,2.3907168E0,6.0315315E1,2.2795355E0,1.02771225E1,1.09399E1],"tree_param":{"num_deleted":"0","num_feature":"50","num_nodes":"31","size_leaf_vector":"1"}},{"base_weights":[5.375491E-3,-4.2573324E-1,7.89539E-2,-5.334604E-1,5.2072054E-1,1.6505536E-1,-1.9617286E-1,2.9261062E-1,-5.9372336E-1,-2.0512082E-2,7.4148184E-1,2.6746157E-1,-2.6750305E-1,-3.0682212E-1,3.867588E-1,1.562707E-1,-7.6255985E-2,1.421034E-2,-1.5579624E-1,2.136282E-1,-0E0,5.239644E-3,1.3888478E-1,-1.835922E-1,3.0265544E-2,-8.545434E-3,-2.4822994E-1],"categories":[],"categories_nodes":[],"categories_segments":[],"categories_sizes":[],"default_left":[0,0,0,0,0,0,0,0,0,0,0,0,0,0,0,0,0,0,0,0,0,0,0,0,0,0,0],"id":30,"left_children":[1,3,5,7,9,11,13,15,17,-1,19,21,23,25,-1,-1,-1,-1,-1,-1,-1,-1,-1,-1,-1,-1,-1],"loss_changes":[2.7650408E1,1.3197638E1,1.7927135E1,6.2328606E0,2.4328847E0,2.5762074E1,3.4217777E1,2.0912328E0,3.9864807E0,0E0,1.604804E0,3.4526077E1,2.1679089E1,3.1548502E1,0E0,0E0,0E0,0E0,0E0,0E0,0E0,0E0,0E0,0E0,0E0,0E0,0E0],"parents":[2147483647,0,0,1,1,2,2,3,3,4,4,5,5,6,6,7,7,8,8,10,10,11,11,12,12,13,13],"right_children":[2,4,6,8,10,12,14,16,18,-1,20,22,24,26,-1,-1,-1,-1,-1,-1,-1,-1,-1,-1,-1,-1,-1],"split_conditions":[-3.8061E0,7.337877E0,1E0,-1.1537767E1,-3.4755247E0,1E0,1.7658379E1,1E0,-1.0898335E1,-2.0512082E-2,9.420717E0,8.91594E-1,1E0,1E0,3.867588E-1,1.562707E-1,-7.6255985E-2,1.421034E-2,-1.5579624E-1,2.136282E-1,-0E0,5.239644E-3,1.3888478E-1,-1.835922E-1,3.0265544E-2,-8.545434E-3,-2.4822994E-1],"split_indices":[23,43,8,1,28,15,12,8,23,0,45,13,14,4,0,0,0,0,0,0,0,0,0,0,0,0,0],"split_type":[0,0,0,0,0,0,0,0,0,0,0,0,0,0,0,0,0,0,0,0,0,0,0,0,0,0,0],"sum_hessian":[8.816081E2,1.2569489E2,7.559132E2,1.1426321E2,1.1431683E1,5.7904675E2,1.7686642E2,6.2857103E0,1.079775E2,1.896982E0,9.534701E0,4.705376E2,1.0850915E2,1.6787813E2,8.988296E0,5.088673E0,1.197037E0,5.6369185E0,1.0234058E2,8.601409E0,9.33292E-1,2.624503E2,2.0808731E2,4.921569E1,5.929346E1,1.2342432E2,4.4453815E1],"tree_param":{"num_deleted":"0","num_feature":"50","num_nodes":"27","size_leaf_vector":"1"}},{"base_weights":[-1.7160727E-2,3.1433278E-1,-9.93766E-2,-3.7134004E-1,5.1981395E-1,9.923987E-2,-2.935824E-1,1.9874166E-1,-5.5176723E-1,6.433344E-1,-3.5756466E-1,2.4730267E-1,-3.7585956E-1,-4.1153216E-1,1.4622672E-1,1.20117605E-1,-1.9761404E-1,2.0631075E-1,-4.4294563E-3,-2.1546143E-1,8.831491E-2,1.062039E-1,-6.0804795E-2,-1.1906773E-1,2.6255348E-1,-1.3841084E-1,1.6057232E-2,-3.8263794E-2,1.7220926E-1],"categories":[],"categories_nodes":[],"categories_segments":[],"categories_sizes":[],"default_left":[0,0,0,0,0,0,0,0,0,0,0,0,0,0,0,0,0,0,0,0,0,0,0,0,0,0,0,0,0],"id":31,"left_children":[1,3,5,7,9,11,13,-1,15,17,19,21,23,25,27,-1,-1,-1,-1,-1,-1,-1,-1,-1,-1,-1,-1,-1,-1],"loss_changes":[2.3204985E1,2.4059757E1,2.6916424E1,8.326588E0,1.4743492E1,2.3857704E1,1.8643667E1,0E0,1.01308975E1,1.667738E1,6.861051E0,2.4911524E1,1.298829E1,2.1654816E1,1.3210661E1,0E0,0E0,0E0,0E0,0E0,0E0,0E0,0E0,0E0,0E0,0E0,0E0,0E0,0E0],"parents":[2147483647,0,0,1,1,2,2,3,3,4,4,5,5,6,6,8,8,9,9,10,10,11,11,12,12,13,13,14,14],"right_children":[2,4,6,8,10,12,14,-1,16,18,20,22,24,26,28,-1,-1,-1,-1,-1,-1,-1,-1,-1,-1,-1,-1,-1,-1],"split_conditions":[-3.0181422E0,6.7E1,1.7896418E-1,5.8E1,3.004487E0,1E0,2.4138331E0,1.9874166E-1,-9.975503E0,1E0,-1.1250257E0,3.0489516E0,1.7877703E1,8.2E1,-2.3093283E0,1.20117605E-1,-1.9761404E-1,2.0631075E-1,-4.4294563E-3,-2.1546143E-1,8.831491E-2,1.062039E-1,-6.0804795E-2,-1.1906773E-1,2.6255348E-1,-1.3841084E-1,1.6057232E-2,-3.8263794E-2,1.7220926E-1],"split_indices":[18,6,22,6,24,8,19,0,12,4,43,42,12,6,48,0,0,0,0,0,0,0,0,0,0,0,0,0,0],"split_type":[0,0,0,0,0,0,0,0,0,0,0,0,0,0,0,0,0,0,0,0,0,0,0,0,0,0,0,0,0],"sum_hessian":[8.579454E2,1.6732118E2,6.9062415E2,3.7177853E1,1.3014333E2,3.3889594E2,3.5172824E2,3.6542706E0,3.3523582E1,1.1539748E2,1.4745855E1,2.6047705E2,7.8418884E1,2.7935028E2,7.237795E1,5.6799717E0,2.784361E1,8.917664E1,2.6220829E1,9.253857E0,5.4919987E0,1.9034267E2,7.013439E1,7.403266E1,4.386227E0,2.1167438E2,6.76759E1,4.618023E1,2.6197721E1],"tree_param":{"num_deleted":"0","num_feature":"50","num_nodes":"29","size_leaf_vector":"1"}},{"base_weights":[-7.5349705E-3,2.258294E-1,-3.420036E-2,-2.5693214E-1,7.700755E-3,3.2386225E-1,-1.6349912E-2,-2.096467E-1,1.0012461E-2],"categories":[],"categories_nodes":[],"categories_segments":[],"categories_sizes":[],"default_left":[0,0,0,0,0,0,0,0,0],"id":32,"left_children":[1,-1,3,-1,5,-1,7,-1,-1],"loss_changes":[1.9569088E1,0E0,3.546174E1,0E0,2.5954102E1,0E0,3.768663E1,0E0,0E0],"parents":[2147483647,0,0,2,2,4,4,6,6],"right_children":[2,-1,4,-1,6,-1,8,-1,-1],"split_conditions":[2.209317E1,2.258294E-1,2.2222221E1,-2.5693214E-1,2.27E1,3.2386225E-1,2.3038752E1,-2.096467E-1,1.0012461E-2],"split_indices":[0,0,0,0,0,0,0,0,0],"split_type":[0,0,0,0,0,0,0,0,0],"sum_hessian":[8.210495E2,2.0707485E1,8.0034204E2,3.1623465E1,7.6871857E2,1.3587755E1,7.551308E2,4.843742E1,7.066934E2],"tree_param":{"num_deleted":"0","num_feature":"50","num_nodes":"9","size_leaf_vector":"1"}},{"base_weights":[-6.608727E-4,2.132489E-2,-2.5748557E-1,-1.0874109E-2,1.0192782E0,2.4894424E-2,-2.5276542E-1,1.6629788E-1,4.193268E-1,-3.9958376E-3,2.499641E-1,-1.7335524E-1,2.5463468E-1],"categories":[],"categories_nodes":[],"categories_segments":[],"categories_sizes":[],"default_left":[0,0,0,0,0,0,0,0,0,0,0,0,0],"id":33,"left_children":[1,3,-1,5,7,9,-1,11,-1,-1,-1,-1,-1],"loss_changes":[1.9957891E1,2.6564163E1,0E0,2.9347057E1,1.318103E1,3.183244E1,0E0,1.1496705E1,0E0,0E0,0E0,0E0,0E0],"parents":[2147483647,0,0,1,1,3,3,4,4,5,5,7,7],"right_children":[2,4,-1,6,8,10,-1,12,-1,-1,-1,-1,-1],"split_conditions":[8.4E1,7.7E1,-2.5748557E-1,1E0,1E0,3.2600304E1,-2.5276542E-1,2.29E1,4.193268E-1,-3.9958376E-3,2.499641E-1,-1.7335524E-1,2.5463468E-1],"split_indices":[2,2,0,17,14,0,0,0,0,0,0,0,0],"split_type":[0,0,0,0,0,0,0,0,0,0,0,0,0],"sum_hessian":[8.077263E2,7.912004E2,1.6525959E1,7.663414E2,2.485899E1,7.4046643E2,2.5874945E1,1.2484724E1,1.2374266E1,7.110296E2,2.9436846E1,5.7208996E0,6.763825E0],"tree_param":{"num_deleted":"0","num_feature":"50","num_nodes":"13","size_leaf_vector":"1"}},{"base_weights":[-1.18143605E-2,2.7547252E-1,-3.4734916E-2,-2.6813924E-1,1.337415E-2,-2.3804182E-1,1.4182751E-1,-1.0446086E-1,1.640255E-1,8.235441E-2,-1.4316355E-1],"categories":[],"categories_nodes":[],"categories_segments":[],"categories_sizes":[],"default_left":[0,0,0,0,0,0,0,0,0,0,0],"id":34,"left_children":[1,-1,3,-1,5,7,9,-1,-1,-1,-1],"loss_changes":[1.9629322E1,0E0,4.12033E1,0E0,2.3999193E1,4.357191E1,7.128011E1,0E0,0E0,0E0,0E0],"parents":[2147483647,0,0,2,2,4,4,5,5,6,6],"right_children":[2,-1,4,-1,6,8,10,-1,-1,-1,-1],"split_conditions":[2.7E1,2.7547252E-1,3.4E1,-2.6813924E-1,2.57E1,1E0,7.4E1,-1.0446086E-1,1.640255E-1,8.235441E-2,-1.4316355E-1],"split_indices":[2,0,2,0,0,20,2,0,0,0,0],"split_type":[0,0,0,0,0,0,0,0,0,0,0],"sum_hessian":[7.9168774E2,1.3693564E1,7.779942E2,3.3612167E1,7.44382E2,2.485664E2,4.9581564E2,2.0688129E2,4.168512E1,3.921978E2,1.03617805E2],"tree_param":{"num_deleted":"0","num_feature":"50","num_nodes":"11","size_leaf_vector":"1"}},{"base_weights":[1.3634018E-3,1.202945E-1,-2.4935251E-1,1.1024314E-2,2.9511604E-1,-1.2661816E0,-1.1049962E-1,-1.0185531E-1,6.372819E-1,1.0504333E-1,-1.4876102E0,-4.3403083E-1,4.5797887E-1,6.1686564E-2,-7.455724E-2,-6.2232457E-2,1.7982979E-1,-6.3667655E-1,-2.5880042E-1,-2.1288374E-1,4.1616064E-2,2.9697517E-1,-2.9404669E-3],"categories":[],"categories_nodes":[],"categories_segments":[],"categories_sizes":[],"default_left":[0,0,0,0,0,0,0,0,0,0,0,0,0,0,0,0,0,0,0,0,0,0,0],"id":35,"left_children":[1,3,5,7,-1,9,11,13,15,-1,17,19,21,-1,-1,-1,-1,-1,-1,-1,-1,-1,-1],"loss_changes":[2.2853455E1,6.145937E1,3.2979507E1,3.4581665E1,0E0,1.2458382E1,4.0208687E1,2.9665422E1,7.5284176E0,0E0,5.702606E0,3.8397644E1,2.937385E1,0E0,0E0,0E0,0E0,0E0,0E0,0E0,0E0,0E0,0E0],"parents":[2147483647,0,0,1,1,2,2,3,3,5,5,6,6,7,7,8,8,10,10,11,11,12,12],"right_children":[2,4,6,8,-1,10,12,14,16,-1,18,20,22,-1,-1,-1,-1,-1,-1,-1,-1,-1,-1],"split_conditions":[2.7379665E1,2.718163E1,2.7636055E1,3.3774705E0,2.9511604E-1,1.63E2,1E0,-7.365945E-1,1.6E2,1.0504333E-1,1.068756E1,1E0,3.0273712E1,6.1686564E-2,-7.455724E-2,-6.2232457E-2,1.7982979E-1,-6.3667655E-1,-2.5880042E-1,-2.1288374E-1,4.1616064E-2,2.9697517E-1,-2.9404669E-3],"split_indices":[0,0,0,44,0,3,14,29,3,0,1,7,0,0,0,0,0,0,0,0,0,0,0],"split_type":[0,0,0,0,0,0,0,0,0,0,0,0,0,0,0,0,0,0,0,0,0,0,0],"sum_hessian":[7.692045E2,5.25008E2,2.4419656E2,4.7907928E2,4.59287E1,2.7451622E1,2.1674493E2,4.0512897E2,7.3950294E1,2.4931316E0,2.495849E1,1.394991E2,7.724584E1,1.4598749E2,2.5914148E2,6.3291464E0,6.762115E1,4.740087E0,2.0218405E1,8.1479935E1,5.8019165E1,2.9747284E1,4.7498554E1],"tree_param":{"num_deleted":"0","num_feature":"50","num_nodes":"23","size_leaf_vector":"1"}},{"base_weights":[-0E0,7.95574E-2,-3.2658377E-1,-1.9109987E-2,4.6087077E-1,-1.2164584E0,5.854113E-3,5.9670933E-2,-8.8054985E-1,3.1672475E-1,1.867876E-2,-3.296476E-1,9.798193E-2,7.9011047E-1,-3.9829525E-1,4.5516088E-5,3.333739E-1,2.1580426E-1,-3.0793506E-1,-7.22165E-2,2.809375E-1,2.6266518E-1,-6.400753E-2,1.2257915E-1,-1.8953526E-1],"categories":[],"categories_nodes":[],"categories_segments":[],"categories_sizes":[],"default_left":[0,0,0,0,0,0,0,0,0,0,0,0,0,0,0,0,0,0,0,0,0,0,0,0,0],"id":36,"left_children":[1,3,5,7,9,11,13,15,17,-1,19,-1,-1,21,23,-1,-1,-1,-1,-1,-1,-1,-1,-1,-1],"loss_changes":[1.8918398E1,2.2874424E1,4.3353638E1,3.2931675E1,4.4880688E1,1.0436001E1,3.353782E1,3.215414E1,2.9222279E1,0E0,3.12007E1,0E0,0E0,1.2278582E1,2.4051208E1,0E0,0E0,0E0,0E0,0E0,0E0,0E0,0E0,0E0,0E0],"parents":[2147483647,0,0,1,1,2,2,3,3,4,4,5,5,6,6,7,7,8,8,10,10,13,13,14,14],"right_children":[2,4,6,8,10,12,14,16,18,-1,20,-1,-1,22,24,-1,-1,-1,-1,-1,-1,-1,-1,-1,-1],"split_conditions":[1.78E2,1.73E2,1.8E2,1.72E2,1.74E2,1E0,2.64E1,1.71E2,4.9E1,3.1672475E-1,6.3E1,-3.296476E-1,9.798193E-2,6.3E1,1.83E2,4.5516088E-5,3.333739E-1,2.1580426E-1,-3.0793506E-1,-7.22165E-2,2.809375E-1,2.6266518E-1,-6.400753E-2,1.2257915E-1,-1.8953526E-1],"split_indices":[3,3,3,3,3,9,0,3,2,0,2,0,0,2,3,0,0,0,0,0,0,0,0,0,0],"split_type":[0,0,0,0,0,0,0,0,0,0,0,0,0,0,0,0,0,0,0,0,0,0,0,0,0],"sum_hessian":[7.350991E2,5.939997E2,1.4109944E2,4.703557E2,1.2364398E2,3.856573E1,1.02533714E2,4.3061255E2,3.9743168E1,4.110902E1,8.253496E1,3.629126E1,2.2744734E0,3.547126E1,6.7062454E1,4.136402E2,1.6972359E1,6.37944E0,3.3363728E1,6.440527E1,1.8129688E1,2.8614058E1,6.857202E0,1.8962538E1,4.809992E1],"tree_param":{"num_deleted":"0","num_feature":"50","num_nodes":"25","size_leaf_vector":"1"}},{"base_weights":[1.2242328E-2,1.8550059E-1,-1.1396726E-1,-8.84447E-2,5.9823275E-1,4.670032E-2,-5.2275527E-1,-3.991732E-1,6.062179E-1,-2.4296053E-1,9.404144E-1,3.1343928E-1,-6.3625616E-1,-8.699616E-1,1.8354422E-1,1.39296455E-2,-2.0389616E-1,2.9673767E-1,-1.8008085E-1,9.4395556E-2,-2.1934149E-1,2.6150888E-1,-8.948506E-2,1.7876003E-2,2.7752462E-1,-3.565789E-1,-0E0,-2.784266E-1,7.101471E-2,2.855173E-1,-1.1876374E-1],"categories":[],"categories_nodes":[],"categories_segments":[],"categories_sizes":[],"default_left":[0,0,0,0,0,0,0,0,0,0,0,0,0,0,0,0,0,0,0,0,0,0,0,0,0,0,0,0,0,0,0],"id":37,"left_children":[1,3,5,7,9,11,13,15,17,19,21,23,25,27,29,-1,-1,-1,-1,-1,-1,-1,-1,-1,-1,-1,-1,-1,-1,-1,-1],"loss_changes":[1.550105E1,3.4624374E1,2.7108492E1,3.8882866E1,3.602296E1,5.2550987E1,2.9377663E1,2.6161327E1,4.6799736E1,1.5465472E1,1.6579361E1,4.0260315E1,4.307499E1,2.6464874E1,2.6597065E1,0E0,0E0,0E0,0E0,0E0,0E0,0E0,0E0,0E0,0E0,0E0,0E0,0E0,0E0,0E0,0E0],"parents":[2147483647,0,0,1,1,2,2,3,3,4,4,5,5,6,6,7,7,8,8,9,9,10,10,11,11,12,12,13,13,14,14],"right_children":[2,4,6,8,10,12,14,16,18,20,22,24,26,28,30,-1,-1,-1,-1,-1,-1,-1,-1,-1,-1,-1,-1,-1,-1,-1,-1],"split_conditions":[5.6E1,-6.0406203E0,2.8577961E1,7.6E1,2.3388687E1,7.9E1,1E0,7.3E1,9.4E1,4.7E1,1.88E2,2.681222E1,8.2E1,1.6612309E1,3.0859375E1,1.39296455E-2,-2.0389616E-1,2.9673767E-1,-1.8008085E-1,9.4395556E-2,-2.1934149E-1,2.6150888E-1,-8.948506E-2,1.7876003E-2,2.7752462E-1,-3.565789E-1,-0E0,-2.784266E-1,7.101471E-2,2.855173E-1,-1.1876374E-1],"split_indices":[2,12,0,6,0,6,14,6,6,2,3,0,6,12,0,0,0,0,0,0,0,0,0,0,0,0,0,0,0,0,0],"split_type":[0,0,0,0,0,0,0,0,0,0,0,0,0,0,0,0,0,0,0,0,0,0,0,0,0,0,0,0,0,0,0],"sum_hessian":[7.034133E2,2.998968E2,4.0351657E2,1.7912625E2,1.2077054E2,2.8837064E2,1.1514592E2,1.2513351E2,5.399275E1,3.4082382E1,8.6688156E1,2.0890082E2,7.946983E1,7.808051E1,3.7065407E1,6.054099E1,6.4592514E1,3.7710056E1,1.6282694E1,1.6765448E1,1.7316935E1,7.9517624E1,7.1705365E0,1.6377185E2,4.5128963E1,3.4239002E1,4.523083E1,6.392858E1,1.4151929E1,1.5345212E1,2.1720196E1],"tree_param":{"num_deleted":"0","num_feature":"50","num_nodes":"31","size_leaf_vector":"1"}},{"base_weights":[1.9474637E-2,-3.251561E-3,2.212309E-1,-7.4817106E-2,2.4753015E-1,1.1538752E-2,-3.5437584E-1,4.743783E-1,-1.594146E-1,3.1168696E-2,-1.0773207E-1,-9.274921E-3,-2.5426176E-1,1.4776614E-1,-1.9380452E-2,-1.5526539E-1,3.838965E-2],"categories":[],"categories_nodes":[],"categories_segments":[],"categories_sizes":[],"default_left":[0,0,0,0,0,0,0,0,0,0,0,0,0,0,0,0,0],"id":38,"left_children":[1,3,-1,5,7,9,11,13,15,-1,-1,-1,-1,-1,-1,-1,-1],"loss_changes":[1.3861441E1,1.0963802E1,0E0,1.2128684E1,1.2839788E1,1.9303219E1,2.4533674E1,7.1342983E0,7.7859745E0,0E0,0E0,0E0,0E0,0E0,0E0,0E0,0E0],"parents":[2147483647,0,0,1,1,3,3,4,4,5,5,6,6,7,7,8,8],"right_children":[2,4,-1,6,8,10,12,14,16,-1,-1,-1,-1,-1,-1,-1,-1],"split_conditions":[1E0,1.936234E0,2.212309E-1,1E0,1.2117947E0,1.78E2,6.4E1,3.40796E0,-2.9698193E0,3.1168696E-2,-1.0773207E-1,-9.274921E-3,-2.5426176E-1,1.4776614E-1,-1.9380452E-2,-1.5526539E-1,3.838965E-2],"split_indices":[9,27,0,8,28,3,2,30,19,0,0,0,0,0,0,0,0],"split_type":[0,0,0,0,0,0,0,0,0,0,0,0,0,0,0,0,0],"sum_hessian":[6.354788E2,6.19402E2,1.6076864E1,4.8579486E2,1.3360712E2,3.6888E2,1.1691487E2,8.7401985E1,4.620513E1,2.9602188E2,7.285812E1,8.1981346E1,3.493352E1,7.19914E1,1.5410582E1,1.9390572E1,2.6814558E1],"tree_param":{"num_deleted":"0","num_feature":"50","num_nodes":"17","size_leaf_vector":"1"}},{"base_weights":[-8.987112E-3,-1.6734636E-1,1.3158268E-1,2.9937366E-2,-2.5304216E-1,2.8363442E-1,-1.9867663E-1,1.18122004E-1,-2.4029846E-1,4.4401938E-1,-2.6537994E-1,-9.965623E-1,-0E0,-2.4624832E-2,2.743803E-1,1.4262508E-1,-3.1807255E-2,-1.8265434E-1,6.6475034E-2,-2.865465E-1,5.714747E-2,6.437406E-2,-2.4647231E-1],"categories":[],"categories_nodes":[],"categories_segments":[],"categories_sizes":[],"default_left":[0,0,0,0,0,0,0,0,0,0,0,0,0,0,0,0,0,0,0,0,0,0,0],"id":39,"left_children":[1,3,5,7,-1,9,11,13,-1,15,17,19,21,-1,-1,-1,-1,-1,-1,-1,-1,-1,-1],"loss_changes":[1.3931903E1,5.2287506E1,1.6568676E1,2.0906292E1,0E0,2.0259897E1,1.5944752E1,5.101275E1,0E0,1.5061508E1,1.3869722E1,5.7793636E0,2.2417522E1,0E0,0E0,0E0,0E0,0E0,0E0,0E0,0E0,0E0,0E0],"parents":[2147483647,0,0,1,1,2,2,3,3,5,5,6,6,7,7,9,9,10,10,11,11,12,12],"right_children":[2,4,6,8,-1,10,12,14,-1,16,18,20,22,-1,-1,-1,-1,-1,-1,-1,-1,-1,-1],"split_conditions":[7.55E1,7.3E1,1.78E2,2.81E1,-2.5304216E-1,4.4745216E0,1.8E2,2.681222E1,-2.4029846E-1,5.272542E0,-1.4658685E0,1E0,1E0,-2.4624832E-2,2.743803E-1,1.4262508E-1,-3.1807255E-2,-1.8265434E-1,6.6475034E-2,-2.865465E-1,5.714747E-2,6.437406E-2,-2.4647231E-1],"split_indices":[6,6,3,0,0,18,3,0,0,11,12,9,4,0,0,0,0,0,0,0,0,0,0],"split_type":[0,0,0,0,0,0,0,0,0,0,0,0,0,0,0,0,0,0,0,0,0,0,0],"sum_hessian":[6.221785E2,2.961337E2,3.2604486E2,2.4128203E2,5.485167E1,2.2560947E2,1.0043538E2,2.2381511E2,1.7466913E1,1.7628154E2,4.9327927E1,1.911605E1,8.131933E1,1.8370232E2,4.0112793E1,1.4281448E2,3.346706E1,2.6808426E1,2.2519499E1,1.7470985E1,1.645066E0,6.494435E1,1.6374977E1],"tree_param":{"num_deleted":"0","num_feature":"50","num_nodes":"23","size_leaf_vector":"1"}},{"base_weights":[1.0348249E-2,-9.7569525E-3,2.2885107E-1,2.5306009E-2,-3.0661336E-1,-3.6345002E-1,7.8461386E-2,-1.879076E-1,2.4155062E-1,9.436464E-2,-2.0124296E-2],"categories":[],"categories_nodes":[],"categories_segments":[],"categories_sizes":[],"default_left":[0,0,0,0,0,0,0,0,0,0,0],"id":40,"left_children":[1,3,-1,5,-1,7,9,-1,-1,-1,-1],"loss_changes":[1.1964707E1,2.6475721E1,0E0,1.12251835E1,0E0,3.6386345E1,2.4959883E1,0E0,0E0,0E0,0E0],"parents":[2147483647,0,0,1,1,3,3,5,5,6,6],"right_children":[2,4,-1,6,-1,8,10,-1,-1,-1,-1],"split_conditions":[1.12E2,1.08E2,2.2885107E-1,3.8E1,-3.0661336E-1,7.6E1,5.7E1,-1.879076E-1,2.4155062E-1,9.436464E-2,-2.0124296E-2],"split_indices":[6,6,0,2,0,6,2,0,0,0,0],"split_type":[0,0,0,0,0,0,0,0,0,0,0],"sum_hessian":[5.839985E2,5.714375E2,1.2560973E1,5.5592914E2,1.5508349E1,6.3724247E1,4.922049E2,4.9899754E1,1.3824493E1,1.7042783E2,3.2177707E2],"tree_param":{"num_deleted":"0","num_feature":"50","num_nodes":"11","size_leaf_vector":"1"}},{"base_weights":[6.625513E-3,7.1773276E-2,-3.1541434E-1,1.8085174E-1,-3.6263257E-1,-5.8328664E-1,9.174558E-1,1.2591805E-1,2.639495E-1,-5.8451235E-1,2.524709E-1,-9.056829E-1,-0E0,-1.4887506E-1,3.8144222E-1,1.157223E-1,-6.580579E-3,-8.5723735E-2,-2.4485919E-1,-0E0,-2.3283653E-1,2.3538518E-1,-9.7208E-2],"categories":[],"categories_nodes":[],"categories_segments":[],"categories_sizes":[],"default_left":[0,0,0,0,0,0,0,0,0,0,0,0,0,0,0,0,0,0,0,0,0,0,0],"id":41,"left_children":[1,3,5,7,9,11,13,15,-1,17,-1,19,21,-1,-1,-1,-1,-1,-1,-1,-1,-1,-1],"loss_changes":[1.1794157E1,2.2649105E1,3.1167484E1,1.7767925E1,2.955712E1,1.38496685E1,1.8298807E1,2.0138409E1,0E0,6.320719E0,0E0,2.6704369E0,1.1406526E1,0E0,0E0,0E0,0E0,0E0,0E0,0E0,0E0,0E0,0E0],"parents":[2147483647,0,0,1,1,2,2,3,3,4,4,5,5,6,6,7,7,9,9,11,11,12,12],"right_children":[2,4,6,8,10,12,14,16,-1,18,-1,20,22,-1,-1,-1,-1,-1,-1,-1,-1,-1,-1],"split_conditions":[1E0,6.9E1,7.7E1,6.8E1,1E0,1.7E2,1E0,1.68E2,2.639495E-1,1E0,2.524709E-1,-1.3893706E1,1.78E2,-1.4887506E-1,3.8144222E-1,1.157223E-1,-6.580579E-3,-8.5723735E-2,-2.4485919E-1,-0E0,-2.3283653E-1,2.3538518E-1,-9.7208E-2],"split_indices":[15,2,2,2,20,3,14,3,0,8,0,1,3,0,0,0,0,0,0,0,0,0,0],"split_type":[0,0,0,0,0,0,0,0,0,0,0,0,0,0,0,0,0,0,0,0,0,0,0],"sum_hessian":[5.727932E2,4.798558E2,9.293744E1,3.8600436E2,9.385143E1,7.749418E1,1.5443264E1,3.6607108E2,1.9933294E1,8.217441E1,1.167702E1,4.8459816E1,2.903436E1,4.1255465E0,1.13177185E1,1.12931725E2,2.5313934E2,5.582391E1,2.63505E1,2.2502542E0,4.6209564E1,7.3521047E0,2.1682257E1],"tree_param":{"num_deleted":"0","num_feature":"50","num_nodes":"23","size_leaf_vector":"1"}},{"base_weights":[-5.257656E-3,4.090761E-2,-3.210957E-1,-1.23219825E-1,1.9297498E-1,-0E0,-5.539423E-1,3.238606E-2,-9.682958E-1,-9.770319E-3,4.4984773E-1,-3.4043124E-1,3.5250407E-1,2.681187E-2,-6.86886E-1,-1.995357E-2,2.5691417E-1,-0E0,-2.4844788E-1,6.250171E-2,-6.8482876E-2,3.229483E-2,1.6183533E-1,-0E0,-1.1436203E-1,1.805388E-1,-1.146776E-2,3.329496E-2,-1.8206713E-1],"categories":[],"categories_nodes":[],"categories_segments":[],"categories_sizes":[],"default_left":[0,0,0,0,0,0,0,0,0,0,0,0,0,0,0,0,0,0,0,0,0,0,0,0,0,0,0,0,0],"id":42,"left_children":[1,3,5,7,9,11,13,15,17,19,21,23,25,-1,27,-1,-1,-1,-1,-1,-1,-1,-1,-1,-1,-1,-1,-1,-1],"loss_changes":[8.331814E0,1.2013626E1,5.6318765E0,3.0864824E1,1.3587756E1,3.8671126E0,4.4940786E0,2.3551245E1,2.9211388E0,1.0184188E1,6.788618E0,1.1595443E0,3.3180025E0,0E0,2.6545277E0,0E0,0E0,0E0,0E0,0E0,0E0,0E0,0E0,0E0,0E0,0E0,0E0,0E0,0E0],"parents":[2147483647,0,0,1,1,2,2,3,3,4,4,5,5,6,6,7,7,8,8,9,9,10,10,11,11,12,12,14,14],"right_children":[2,4,6,8,10,12,14,16,18,20,22,24,26,-1,28,-1,-1,-1,-1,-1,-1,-1,-1,-1,-1,-1,-1,-1,-1],"split_conditions":[1.4715844E0,7.55E1,3.850928E-1,7.3E1,2.276421E-1,-1.4714572E0,6.9E1,1E0,3.2E1,-3.4275272E-1,3.107934E0,-1.9578674E0,2.5125582E0,2.681187E-2,3.2E1,-1.995357E-2,2.5691417E-1,-0E0,-2.4844788E-1,6.250171E-2,-6.8482876E-2,3.229483E-2,1.6183533E-1,-0E0,-1.1436203E-1,1.805388E-1,-1.146776E-2,3.329496E-2,-1.8206713E-1],"split_indices":[46,6,18,6,47,13,6,5,2,30,1,47,23,0,2,0,0,0,0,0,0,0,0,0,0,0,0,0,0],"split_type":[0,0,0,0,0,0,0,0,0,0,0,0,0,0,0,0,0,0,0,0,0,0,0,0,0,0,0,0,0],"sum_hessian":[5.48649E2,4.7640808E2,7.224094E1,2.2576172E2,2.5064636E2,3.0257805E1,4.1983128E1,1.903543E2,3.5407417E1,1.3823286E2,1.124135E2,1.4997124E1,1.526068E1,5.6630874E0,3.632004E1,1.7106343E2,1.9290874E1,8.7327623E-1,3.453414E1,6.776736E1,7.046551E1,4.814846E1,6.426503E1,2.3454258E0,1.2651698E1,8.687189E0,6.5734916E0,1.2100708E0,3.510997E1],"tree_param":{"num_deleted":"0","num_feature":"50","num_nodes":"29","size_leaf_vector":"1"}},{"base_weights":[-3.0739224E-3,2.1524797E-1,-3.213948E-2,-2.441323E-1,1.3135629E-2,2.4542923E-1,-6.212638E-3,-1.7238559E-1,9.63262E-3],"categories":[],"categories_nodes":[],"categories_segments":[],"categories_sizes":[],"default_left":[0,0,0,0,0,0,0,0,0],"id":43,"left_children":[1,-1,3,-1,5,-1,7,-1,-1],"loss_changes":[1.2627923E1,0E0,2.3510868E1,0E0,1.0479591E1,0E0,1.612122E1,0E0,0E0],"parents":[2147483647,0,0,2,2,4,4,6,6],"right_children":[2,-1,4,-1,6,-1,8,-1,-1],"split_conditions":[2.209317E1,2.1524797E-1,2.2222221E1,-2.441323E-1,2.27E1,2.4542923E-1,2.3038752E1,-1.7238559E-1,9.63262E-3],"split_indices":[0,0,0,0,0,0,0,0,0],"split_type":[0,0,0,0,0,0,0,0,0],"sum_hessian":[5.233011E2,1.4495631E1,5.0880545E2,2.2817213E1,4.8598825E2,9.392058E0,4.765962E2,2.9776968E1,4.468192E2],"tree_param":{"num_deleted":"0","num_feature":"50","num_nodes":"9","size_leaf_vector":"1"}},{"base_weights":[-4.8553147E-3,7.140981E-2,-2.3720673E-1,2.1733885E-1,-3.372337E-1,-7.5017345E-1,3.5885707E-1,2.5729936E-2,4.4637367E-1,-6.7677796E-1,7.874616E-1,-8.008821E-1,8.1645414E-2,2.6433474E-1,-3.9101206E-2,4.2113613E-2,-1.5898602E-1,2.0125346E-1,5.1303823E-3,6.0719136E-2,-2.207955E-1,2.383413E-1,-1.29518155E-2,-0E0,-2.0518944E-1,2.041457E-1,-6.9523424E-2],"categories":[],"categories_nodes":[],"categories_segments":[],"categories_sizes":[],"default_left":[0,0,0,0,0,0,0,0,0,0,0,0,0,0,0,0,0,0,0,0,0,0,0,0,0,0,0],"id":44,"left_children":[1,3,5,7,9,11,13,15,17,19,21,23,-1,-1,25,-1,-1,-1,-1,-1,-1,-1,-1,-1,-1,-1,-1],"loss_changes":[9.389206E0,2.3063793E1,4.103055E1,1.2125784E1,3.8756275E1,4.7431984E0,1.876099E1,1.5661463E1,1.9900494E1,1.7703335E1,4.7765713E0,2.7133255E0,0E0,0E0,8.123899E0,0E0,0E0,0E0,0E0,0E0,0E0,0E0,0E0,0E0,0E0,0E0,0E0],"parents":[2147483647,0,0,1,1,2,2,3,3,4,4,5,5,6,6,7,7,8,8,9,9,10,10,11,11,14,14],"right_children":[2,4,6,8,10,12,14,16,18,20,22,24,-1,-1,26,-1,-1,-1,-1,-1,-1,-1,-1,-1,-1,-1,-1],"split_conditions":[1E0,1E0,1E0,-7.5478735E0,1.8E2,1E0,1.67E2,-9.746049E0,1.0794924E1,1.67E2,8.976402E0,-2.0764363E0,8.1645414E-2,2.6433474E-1,-1.2016953E0,4.2113613E-2,-1.5898602E-1,2.0125346E-1,5.1303823E-3,6.0719136E-2,-2.207955E-1,2.383413E-1,-1.29518155E-2,-0E0,-2.0518944E-1,2.041457E-1,-6.9523424E-2],"split_indices":[4,14,14,12,3,25,3,12,12,3,42,46,0,0,49,0,0,0,0,0,0,0,0,0,0,0,0],"split_type":[0,0,0,0,0,0,0,0,0,0,0,0,0,0,0,0,0,0,0,0,0,0,0,0,0,0,0],"sum_hessian":[5.1776715E2,3.8679236E2,1.309748E2,2.8731137E2,9.9480965E1,7.124183E1,5.973296E1,1.5961403E2,1.2769735E2,7.7452705E1,2.2028261E1,6.926464E1,1.9771876E0,2.1492733E1,3.8240227E1,1.3306783E2,2.6546207E1,6.553124E1,6.2166107E1,1.4491008E1,6.29617E1,1.885286E1,3.1754005E0,3.0930097E0,6.617163E1,6.9065113E0,3.1333715E1],"tree_param":{"num_deleted":"0","num_feature":"50","num_nodes":"27","size_leaf_vector":"1"}},{"base_weights":[1.5646231E-3,-1.6367117E-2,2.0451085E-1,-6.782053E-2,3.3672604E-1,-1.01744145E-1,8.419287E-1,5.5865E-1,-6.1729914E-1,-4.7208583E-3,-9.8813504E-2,2.8884894E-1,-8.808937E-2,-3.935186E-2,2.5746703E-1,-1.992736E-1,-0E0],"categories":[],"categories_nodes":[],"categories_segments":[],"categories_sizes":[],"default_left":[0,0,0,0,0,0,0,0,0,0,0,0,0,0,0,0,0],"id":45,"left_children":[1,3,-1,5,7,9,11,13,15,-1,-1,-1,-1,-1,-1,-1,-1],"loss_changes":[8.233779E0,8.380115E0,0E0,1.2211047E1,1.2557004E1,9.707085E0,7.144287E0,1.8606422E1,1.833334E0,0E0,0E0,0E0,0E0,0E0,0E0,0E0,0E0],"parents":[2147483647,0,0,1,1,3,3,4,4,5,5,6,6,7,7,8,8],"right_children":[2,4,-1,6,8,10,12,14,16,-1,-1,-1,-1,-1,-1,-1,-1],"split_conditions":[1E0,1E0,2.0451085E-1,1E0,1E0,1E0,5.6E1,3.8E1,-2.1611204E0,-4.7208583E-3,-9.8813504E-2,2.8884894E-1,-8.808937E-2,-3.935186E-2,2.5746703E-1,-1.992736E-1,-0E0],"split_indices":[9,5,0,21,21,4,2,2,23,0,0,0,0,0,0,0,0],"split_type":[0,0,0,0,0,0,0,0,0,0,0,0,0,0,0,0,0],"sum_hessian":[4.85701E2,4.751976E2,1.0503372E1,4.181346E2,5.7062996E1,4.0508762E2,1.3046986E1,4.7546402E1,9.516596E0,3.2247644E2,8.26112E1,1.0852202E1,2.194783E0,1.8847605E1,2.8698795E1,7.71858E0,1.7980168E0],"tree_param":{"num_deleted":"0","num_feature":"50","num_nodes":"17","size_leaf_vector":"1"}},{"base_weights":[-0E0,2.0352222E-1,-2.1067148E-2,-2.3594134E-1,1.9443141E-2,8.845933E-2,-3.3412477E-1,5.1372655E-2,-7.145731E-2,-1.4573906E-1,7.5861014E-2],"categories":[],"categories_nodes":[],"categories_segments":[],"categories_sizes":[],"default_left":[0,0,0,0,0,0,0,0,0,0,0],"id":46,"left_children":[1,-1,3,-1,5,7,9,-1,-1,-1,-1],"loss_changes":[8.367941E0,0E0,1.8696785E1,0E0,1.0500106E1,1.73952E1,1.2387903E1,0E0,0E0,0E0,0E0],"parents":[2147483647,0,0,2,2,4,4,5,5,6,6],"right_children":[2,-1,4,-1,6,8,10,-1,-1,-1,-1],"split_conditions":[2.209317E1,2.0352222E-1,2.2222221E1,-2.3594134E-1,1E0,1E0,1E0,5.1372655E-2,-7.145731E-2,-1.4573906E-1,7.5861014E-2],"split_indices":[0,0,0,0,15,4,4,0,0,0,0],"split_type":[0,0,0,0,0,0,0,0,0,0,0],"sum_hessian":[4.6876755E2,1.0696254E1,4.580713E2,1.8948435E1,4.3912286E2,3.7059158E2,6.853128E1,2.8300998E2,8.75816E1,4.984459E1,1.8686697E1],"tree_param":{"num_deleted":"0","num_feature":"50","num_nodes":"11","size_leaf_vector":"1"}},{"base_weights":[6.0263625E-3,-1.9607061E-1,1.1276209E-1,6.207497E-1,-2.815481E-1,7.371485E-1,3.7650157E-2,-9.791328E-3,2.0278554E-1,2.520777E-1,-3.3807406E-1,-0E0,2.3938672E-1,9.782357E-2,-4.9056086E-1,-4.6179675E-2,-2.27343E-1,1.6114716E-1,-1.5519296E-1,5.4031596E-2,-4.8330646E-2,-2.2759348E-1,1.8460424E-1],"categories":[],"categories_nodes":[],"categories_segments":[],"categories_sizes":[],"default_left":[0,0,0,0,0,0,0,0,0,0,0,0,0,0,0,0,0,0,0,0,0,0,0],"id":47,"left_children":[1,3,5,7,9,11,13,-1,-1,-1,15,17,-1,19,21,-1,-1,-1,-1,-1,-1,-1,-1],"loss_changes":[9.867569E0,1.0694222E1,1.3461069E1,2.8486362E0,1.0239885E1,5.339464E0,8.370732E0,0E0,0E0,0E0,1.0872856E1,4.2831945E0,0E0,9.274339E0,1.559594E1,0E0,0E0,0E0,0E0,0E0,0E0,0E0,0E0],"parents":[2147483647,0,0,1,1,2,2,3,3,4,4,5,5,6,6,10,10,11,11,13,13,14,14],"right_children":[2,4,6,8,10,12,14,-1,-1,-1,16,18,-1,20,22,-1,-1,-1,-1,-1,-1,-1,-1],"split_conditions":[2.546401E1,-5.7365513E0,2.64E1,1.63E2,1.56E2,2.57E1,1.83E2,-9.791328E-3,2.0278554E-1,2.520777E-1,1.39052105E1,2.5605536E1,2.3938672E-1,1.4056909E1,3.16E1,-4.6179675E-2,-2.27343E-1,1.6114716E-1,-1.5519296E-1,5.4031596E-2,-4.8330646E-2,-2.2759348E-1,1.8460424E-1],"split_indices":[0,1,0,3,3,0,3,0,0,0,12,0,0,1,0,0,0,0,0,0,0,0,0],"split_type":[0,0,0,0,0,0,0,0,0,0,0,0,0,0,0,0,0,0,0,0,0,0,0],"sum_hessian":[4.5969135E2,1.5506616E2,3.0462518E2,1.2907555E1,1.4215862E2,3.0235828E1,2.7438937E2,2.0880725E0,1.0819482E1,4.3636913E0,1.3779492E2,8.17803E0,2.2057798E1,2.4888835E2,2.5501003E1,1.12848236E2,2.4946684E1,4.2585425E0,3.9194875E0,1.7813872E2,7.074963E1,1.9626532E1,5.8744726E0],"tree_param":{"num_deleted":"0","num_feature":"50","num_nodes":"23","size_leaf_vector":"1"}},{"base_weights":[-5.7072057E-3,-1.3546562E-1,1.309791E-1,3.4598063E-3,-6.2116975E-1,5.128722E-1,-3.990629E-2,-7.305232E-2,8.1477785E-1,2.7554533E-1,-7.748176E-1,6.9690025E-1,-2.1654144E-1,-3.9166334E-1,1.821134E-1,-5.9049957E-2,5.2134633E-2,2.3980848E-1,-0E0,-1.7043008E-2,1.3395298E-1,-2.0429493E-1,1.9690614E-2,-1.2616529E-1,1.9820979E-1,-1.8296283E-1,7.232101E-2,6.1114408E-2,-2.0432207E-1,1.9479527E-1,-7.4470877E-3],"categories":[],"categories_nodes":[],"categories_segments":[],"categories_sizes":[],"default_left":[0,0,0,0,0,0,0,0,0,0,0,0,0,0,0,0,0,0,0,0,0,0,0,0,0,0,0,0,0,0,0],"id":48,"left_children":[1,3,5,7,9,11,13,15,17,19,21,23,25,27,29,-1,-1,-1,-1,-1,-1,-1,-1,-1,-1,-1,-1,-1,-1,-1,-1],"loss_changes":[7.874428E0,1.6308397E1,1.4371058E1,1.2000596E1,8.091564E0,9.741316E0,1.1652732E1,8.0567875E0,3.1096992E0,1.2711753E0,3.491846E0,8.6657295E0,4.3339386E0,1.769254E1,1.24295845E1,0E0,0E0,0E0,0E0,0E0,0E0,0E0,0E0,0E0,0E0,0E0,0E0,0E0,0E0,0E0,0E0],"parents":[2147483647,0,0,1,1,2,2,3,3,4,4,5,5,6,6,7,7,8,8,9,9,10,10,11,11,12,12,13,13,14,14],"right_children":[2,4,6,8,10,12,14,16,18,20,22,24,26,28,30,-1,-1,-1,-1,-1,-1,-1,-1,-1,-1,-1,-1,-1,-1,-1,-1],"split_conditions":[-6.455482E0,-1.0155336E1,7.677647E0,1E0,1.09754026E-1,1E0,7.55E1,3.2154086E0,1E0,2.29E1,6.566036E0,2.2222221E1,7.55E1,4.572331E0,8E1,-5.9049957E-2,5.2134633E-2,2.3980848E-1,-0E0,-1.7043008E-2,1.3395298E-1,-2.0429493E-1,1.9690614E-2,-1.2616529E-1,1.9820979E-1,-1.8296283E-1,7.232101E-2,6.1114408E-2,-2.0432207E-1,1.9479527E-1,-7.4470877E-3],"split_indices":[12,12,12,5,18,4,6,1,21,0,13,0,6,1,6,0,0,0,0,0,0,0,0,0,0,0,0,0,0,0,0],"split_type":[0,0,0,0,0,0,0,0,0,0,0,0,0,0,0,0,0,0,0,0,0,0,0,0,0,0,0,0,0,0,0],"sum_hessian":[4.4176047E2,2.3071649E2,2.1104398E2,1.784065E2,5.231001E1,6.661306E1,1.4443091E2,1.6261057E2,1.5795931E1,6.5022936E0,4.5807716E1,5.4419884E1,1.2193177E1,5.7498814E1,8.69321E1,1.0471897E2,5.7891582E1,1.3685481E1,2.1104496E0,1.4466217E0,5.055672E0,4.377706E1,2.0306528E0,3.7011988E0,5.0718685E1,6.788572E0,5.4046054E0,2.2796371E1,3.4702442E1,2.2869905E1,6.406219E1],"tree_param":{"num_deleted":"0","num_feature":"50","num_nodes":"31","size_leaf_vector":"1"}},{"base_weights":[1.4732426E-4,-1.8677413E-2,2.0167305E-1,-4.0684488E-2,1.947108E-1,1.9306488E-1,-6.3344985E-2,-2.2274938E-1,-6.4309314E-3],"categories":[],"categories_nodes":[],"categories_segments":[],"categories_sizes":[],"default_left":[0,0,0,0,0,0,0,0,0],"id":49,"left_children":[1,3,-1,5,-1,-1,7,-1,-1],"loss_changes":[7.4759665E0,6.62853E0,0E0,6.878621E0,0E0,0E0,1.1371517E1,0E0,0E0],"parents":[2147483647,0,0,1,1,3,3,6,6],"right_children":[2,4,-1,6,-1,-1,8,-1,-1],"split_conditions":[3.2893333E1,1E0,2.0167305E-1,2.209317E1,1.947108E-1,1.9306488E-1,2.2222221E1,-2.2274938E-1,-6.4309314E-3],"split_indices":[0,9,0,0,0,0,0,0,0],"split_type":[0,0,0,0,0,0,0,0,0],"sum_hessian":[4.2064493E2,4.1094437E2,9.700558E0,4.023837E2,8.560666E0,8.497242E0,3.9388644E2,1.416769E1,3.7971878E2],"tree_param":{"num_deleted":"0","num_feature":"50","num_nodes":"9","size_leaf_vector":"1"}},{"base_weights":[3.7457203E-3,-2.173122E-2,5.046898E-1,-4.211893E-1,2.0358672E-2,6.3875914E-1,-0E0,-7.688118E-1,2.0595928E-1,4.6421075E-1,-2.5196768E-2,-0E0,1.7694412E-1,1.4410031E-1,-2.4338056E-1,-6.757946E-2,2.0274688E-1,5.383293E-3,-2.0863558E-1],"categories":[],"categories_nodes":[],"categories_segments":[],"categories_sizes":[],"default_left":[0,0,0,0,0,0,0,0,0,0,0,0,0,0,0,0,0,0,0],"id":50,"left_children":[1,3,5,7,9,11,-1,13,-1,15,17,-1,-1,-1,-1,-1,-1,-1,-1],"loss_changes":[5.7696724E0,6.985921E0,2.1291032E0,1.7996609E1,7.5748534E0,1.5111594E0,0E0,1.1187914E1,0E0,1.0387867E1,1.3395911E1,0E0,0E0,0E0,0E0,0E0,0E0,0E0,0E0],"parents":[2147483647,0,0,1,1,2,2,3,3,4,4,5,5,7,7,9,9,10,10],"right_children":[2,4,6,8,10,12,-1,14,-1,16,18,-1,-1,-1,-1,-1,-1,-1,-1],"split_conditions":[5.4419317E0,3.8E1,7.4E1,7.6E1,-1.989415E1,2.3038752E1,-0E0,-2.495105E0,2.0595928E-1,2.5217358E1,5.1747804E0,-0E0,1.7694412E-1,1.4410031E-1,-2.4338056E-1,-6.757946E-2,2.0274688E-1,5.383293E-3,-2.0863558E-1],"split_indices":[16,2,2,6,12,0,0,1,0,0,11,0,0,0,0,0,0,0,0],"split_type":[0,0,0,0,0,0,0,0,0,0,0,0,0,0,0,0,0,0,0],"sum_hessian":[4.0905203E2,3.8806824E2,2.098382E1,3.862709E1,3.4944113E2,1.7953691E1,3.0301297E0,3.1288609E1,7.3384805E0,3.3923813E1,3.1551733E2,1.4713545E0,1.6482336E1,3.6462185E0,2.7642391E1,1.0370221E1,2.3553593E1,2.9819843E2,1.7318905E1],"tree_param":{"num_deleted":"0","num_feature":"50","num_nodes":"19","size_leaf_vector":"1"}},{"base_weights":[3.9869854E-3,8.388428E-2,-2.5025874E-1,-1.1672283E-1,3.9748597E-1,4.5478296E-2,-2.4154657E-1,-7.6521385E-1,3.313188E-2,1.0469525E-1,2.77076E-1,-1.4872605E-1,2.5515634E-1,-2.4020192E-1,1.06597476E-1,5.1490653E-2,-1.0689773E-1,-6.009665E-2,1.1014084E-1,5.6853868E-2,-2.602104E-1],"categories":[],"categories_nodes":[],"categories_segments":[],"categories_sizes":[],"default_left":[0,0,0,0,0,0,0,0,0,0,0,0,0,0,0,0,0,0,0,0,0],"id":51,"left_children":[1,3,5,7,9,11,-1,13,15,17,-1,19,-1,-1,-1,-1,-1,-1,-1,-1,-1],"loss_changes":[7.850348E0,1.9479807E1,2.1123478E1,1.8710083E1,2.4788813E1,1.3828833E1,0E0,1.0629126E1,1.2418324E1,1.1207468E1,0E0,2.0357727E1,0E0,0E0,0E0,0E0,0E0,0E0,0E0,0E0,0E0],"parents":[2147483647,0,0,1,1,2,2,3,3,4,4,5,5,7,7,8,8,9,9,11,11],"right_children":[2,4,6,8,10,12,-1,14,16,18,-1,20,-1,-1,-1,-1,-1,-1,-1,-1,-1],"split_conditions":[1E0,1E0,6.4E1,4.3E1,1.69E2,1.76E2,-2.4154657E-1,-2.8473415E0,7.3E1,2.4858366E1,2.77076E-1,1.74E2,2.5515634E-1,-2.4020192E-1,1.06597476E-1,5.1490653E-2,-1.0689773E-1,-6.009665E-2,1.1014084E-1,5.6853868E-2,-2.602104E-1],"split_indices":[8,10,2,2,3,3,0,12,2,0,0,3,0,0,0,0,0,0,0,0,0],"split_type":[0,0,0,0,0,0,0,0,0,0,0,0,0,0,0,0,0,0,0,0,0],"sum_hessian":[3.9341046E2,3.0309613E2,9.0314354E1,1.8310242E2,1.199937E2,6.419318E1,2.6121176E1,3.498701E1,1.481154E2,8.7869545E1,3.2124153E1,5.356503E1,1.0628146E1,3.0446192E1,4.540819E0,1.09563614E2,3.8551796E1,4.2286537E1,4.5583008E1,3.7522636E1,1.6042395E1],"tree_param":{"num_deleted":"0","num_feature":"50","num_nodes":"21","size_leaf_vector":"1"}},{"base_weights":[-0E0,-3.277395E-1,5.7159092E-2,6.3085325E-2,-4.526233E-1,8.036097E-2,-1.8858562E-1,-0E0,-5.43691E-1,4.610761E-2,7.652952E-1,-2.2013561E-1,-7.2224766E-2,-1.2134143E-2,7.762352E-2,-0E0,2.8050727E-1],"categories":[],"categories_nodes":[],"categories_segments":[],"categories_sizes":[],"default_left":[0,0,0,0,0,0,0,0,0,0,0,0,0,0,0,0,0],"id":52,"left_children":[1,3,5,-1,7,9,-1,-1,11,13,15,-1,-1,-1,-1,-1,-1],"loss_changes":[6.848512E0,4.2734346E0,5.5843744E0,0E0,2.353467E0,6.5558996E0,0E0,0E0,2.0006237E0,8.324478E0,4.080611E0,0E0,0E0,0E0,0E0,0E0,0E0],"parents":[2147483647,0,0,1,1,2,2,4,4,5,5,8,8,9,9,10,10],"right_children":[2,4,6,-1,8,10,-1,-1,12,14,16,-1,-1,-1,-1,-1,-1],"split_conditions":[-3.8061E0,-4.3352447E0,8.4E1,6.3085325E-2,-1.6332479E0,7.7E1,-1.8858562E-1,-0E0,-2.7961996E0,8.2E1,1E0,-2.2013561E-1,-7.2224766E-2,-1.2134143E-2,7.762352E-2,-0E0,2.8050727E-1],"split_indices":[23,30,2,0,35,2,0,0,28,6,4,0,0,0,0,0,0],"split_type":[0,0,0,0,0,0,0,0,0,0,0,0,0,0,0,0,0],"sum_hessian":[3.7716522E2,5.2896664E1,3.2426855E2,7.565637E0,4.5331024E1,3.175998E2,6.6687574E0,6.249832E0,3.9081192E1,3.049732E2,1.2626613E1,1.3024119E1,2.6057074E1,2.2326521E2,8.170798E1,4.5370026E0,8.08961E0],"tree_param":{"num_deleted":"0","num_feature":"50","num_nodes":"17","size_leaf_vector":"1"}},{"base_weights":[-5.2182307E-3,5.4423604E-2,-2.2300202E-1,3.142292E-1,-6.337247E-2,-3.4928486E-1,2.2132257E-1,5.6649613E-1,-3.9152944E-1,-2.2913419E-1,-0E0,-5.2780575E-1,4.3856063E-1,-8.493218E-4,2.5499043E-1,-0E0,-1.9983745E-1,1.1889041E-1,-2.6308272E-2,4.8151515E-2,-1.7535284E-1,2.2924684E-1,-0E0],"categories":[],"categories_nodes":[],"categories_segments":[],"categories_sizes":[],"default_left":[0,0,0,0,0,0,0,0,0,0,0,0,0,0,0,0,0,0,0,0,0,0,0],"id":53,"left_children":[1,3,5,7,9,11,-1,13,15,-1,17,19,21,-1,-1,-1,-1,-1,-1,-1,-1,-1,-1],"loss_changes":[5.037485E0,9.152229E0,1.1750333E1,1.7026882E1,1.1718388E1,1.1203862E1,0E0,2.0443062E1,4.2838E0,0E0,1.007482E1,9.761803E0,4.038425E0,0E0,0E0,0E0,0E0,0E0,0E0,0E0,0E0,0E0,0E0],"parents":[2147483647,0,0,1,1,2,2,3,3,4,4,5,5,7,7,8,8,10,10,11,11,12,12],"right_children":[2,4,6,8,10,12,-1,14,16,-1,18,20,22,-1,-1,-1,-1,-1,-1,-1,-1,-1,-1],"split_conditions":[1E0,1.68E2,1.7877703E1,1E0,1.69E2,1.76E2,2.2132257E-1,1.6E2,-1.270596E1,-2.2913419E-1,7.3E1,1.58E2,8.6E1,-8.493218E-4,2.5499043E-1,-0E0,-1.9983745E-1,1.1889041E-1,-2.6308272E-2,4.8151515E-2,-1.7535284E-1,2.2924684E-1,-0E0],"split_indices":[8,3,12,15,3,3,0,3,12,0,6,3,6,0,0,0,0,0,0,0,0,0,0],"split_type":[0,0,0,0,0,0,0,0,0,0,0,0,0,0,0,0,0,0,0,0,0,0,0],"sum_hessian":[3.7181256E2,2.8852304E2,8.328953E1,9.238808E1,1.9613495E2,7.640385E1,6.8856807E0,6.933851E1,2.304957E1,1.3133038E1,1.8300192E2,6.3677578E1,1.272627E1,3.1161444E1,3.8177067E1,1.2213245E1,1.0836324E1,3.3865585E1,1.4913634E2,1.2184802E1,5.1492775E1,6.545229E0,6.1810412E0],"tree_param":{"num_deleted":"0","num_feature":"50","num_nodes":"23","size_leaf_vector":"1"}},{"base_weights":[-1.1441783E-2,5.0030675E-2,-2.1056578E-1,-6.24147E-2,1.9066417E-1,-3.7955165E-1,6.6383732E-3,1.4281984E-1,-1.6494639E-1,-3.5911882E-1,2.5805593E-1,6.980477E-2,-4.606576E-1,-1.5783675E-1,5.75597E-1,-2.6340997E-2,1.23658635E-1,-8.289842E-2,1.5113291E-2,1.03017725E-2,-1.7094563E-1,7.684529E-2,-7.813221E-2,-1.4783047E-1,-0E0,2.9658165E-2,-7.8466E-2,1.8098493E-1,-0E0],"categories":[],"categories_nodes":[],"categories_segments":[],"categories_sizes":[],"default_left":[0,0,0,0,0,0,0,0,0,0,0,0,0,0,0,0,0,0,0,0,0,0,0,0,0,0,0,0,0],"id":54,"left_children":[1,3,5,7,9,11,13,15,17,19,21,-1,23,25,27,-1,-1,-1,-1,-1,-1,-1,-1,-1,-1,-1,-1,-1,-1],"loss_changes":[4.426247E0,4.2841587E0,3.5688872E0,3.027818E0,4.450454E0,3.0883589E0,3.8938649E0,4.5427895E0,4.254347E0,2.3779016E0,3.770146E0,0E0,2.9712029E0,1.5030305E0,1.5348487E0,0E0,0E0,0E0,0E0,0E0,0E0,0E0,0E0,0E0,0E0,0E0,0E0,0E0,0E0],"parents":[2147483647,0,0,1,1,2,2,3,3,4,4,5,5,6,6,7,7,8,8,9,9,10,10,12,12,13,13,14,14],"right_children":[2,4,6,8,10,12,14,16,18,20,22,-1,24,26,28,-1,-1,-1,-1,-1,-1,-1,-1,-1,-1,-1,-1,-1,-1],"split_conditions":[1.7627478E0,1.848006E-1,1E0,1.68E2,1.57E2,1.69E2,1.69E2,1E0,7.414505E-2,6.5E1,2.0838294E0,6.980477E-2,1.3717855E0,-9.6566767E-1,1E0,-2.6340997E-2,1.23658635E-1,-8.289842E-2,1.5113291E-2,1.03017725E-2,-1.7094563E-1,7.684529E-2,-7.813221E-2,-1.4783047E-1,-0E0,2.9658165E-2,-7.8466E-2,1.8098493E-1,-0E0],"split_indices":[26,47,10,3,3,3,3,7,36,6,46,0,36,31,4,0,0,0,0,0,0,0,0,0,0,0,0,0,0],"split_type":[0,0,0,0,0,0,0,0,0,0,0,0,0,0,0,0,0,0,0,0,0,0,0,0,0,0,0,0,0],"sum_hessian":[3.4551172E2,2.603826E2,8.5129135E1,1.4068707E2,1.1969552E2,5.0292465E1,3.4836666E1,4.320303E1,9.748405E1,1.0846741E1,1.0884878E2,3.7321568E0,4.6560307E1,2.6082378E1,8.754289E0,2.4246376E1,1.8956654E1,5.73746E1,4.0109447E1,3.9313986E0,6.915342E0,1.0108067E2,7.768103E0,3.439268E1,1.2167627E1,7.307475E0,1.8774904E1,7.6249213E0,1.1293678E0],"tree_param":{"num_deleted":"0","num_feature":"50","num_nodes":"29","size_leaf_vector":"1"}},{"base_weights":[-9.738284E-3,1.03664145E-1,-1.11224405E-1,2.0183717E-1,-2.1453235E-1,-2.8367606E-1,5.255606E-2,2.7390364E-1,-3.4237856E-1,1.1781552E-1,-1.9412494E-1,1.2437029E-2,-4.7665447E-1,5.272363E-1,-1.01684086E-1,3.756447E-2,1.7894801E-1,-1.788361E-1,8.517079E-3,1.8479688E-1,-0E0,-1.1659747E-1,7.374144E-2,-1.6895765E-1,-2.5484024E-2,1.5446651E-1,-4.9254708E-2,-5.8644313E-2,1.2599553E-1],"categories":[],"categories_nodes":[],"categories_segments":[],"categories_sizes":[],"default_left":[0,0,0,0,0,0,0,0,0,0,0,0,0,0,0,0,0,0,0,0,0,0,0,0,0,0,0,0,0],"id":55,"left_children":[1,3,5,7,9,11,13,15,17,19,-1,21,23,25,27,-1,-1,-1,-1,-1,-1,-1,-1,-1,-1,-1,-1,-1,-1],"loss_changes":[3.9637065E0,4.9416103E0,5.5309563E0,4.8528476E0,7.606779E0,5.8936906E0,7.3378067E0,5.055135E0,2.726766E0,2.450913E0,0E0,5.077241E0,3.8612003E0,2.5400457E0,5.813155E0,0E0,0E0,0E0,0E0,0E0,0E0,0E0,0E0,0E0,0E0,0E0,0E0,0E0,0E0],"parents":[2147483647,0,0,1,1,2,2,3,3,4,4,5,5,6,6,7,7,8,8,9,9,11,11,12,12,13,13,14,14],"right_children":[2,4,6,8,10,12,14,16,18,20,-1,22,24,26,28,-1,-1,-1,-1,-1,-1,-1,-1,-1,-1,-1,-1,-1,-1],"split_conditions":[9.729652E-3,1E0,-1.0069689E0,1.9161364E1,8.9E1,6.657469E-1,5.7E1,2.8732653E0,1.59E2,5.6E1,-1.9412494E-1,-3.8401523E0,7.6E1,1.88E2,1.8E2,3.756447E-2,1.7894801E-1,-1.788361E-1,8.517079E-3,1.8479688E-1,-0E0,-1.1659747E-1,7.374144E-2,-1.6895765E-1,-2.5484024E-2,1.5446651E-1,-4.9254708E-2,-5.8644313E-2,1.2599553E-1],"split_indices":[22,4,19,1,6,18,2,31,3,2,0,13,6,3,3,0,0,0,0,0,0,0,0,0,0,0,0,0,0],"split_type":[0,0,0,0,0,0,0,0,0,0,0,0,0,0,0,0,0,0,0,0,0,0,0,0,0,0,0,0,0],"sum_hessian":[3.417515E2,1.5632068E2,1.8543083E2,1.2235014E2,3.3970528E1,9.3218765E1,9.221207E1,1.1023566E2,1.21144905E1,2.0945171E1,1.3025355E1,3.491125E1,5.8307514E1,2.3771978E1,6.8440094E1,9.047138E1,1.9764269E1,6.900998E0,5.213493E0,3.805614E0,1.7139557E1,1.1344373E1,2.3566877E1,3.4392113E1,2.39154E1,2.2125305E1,1.6466745E0,5.7790787E1,1.0649304E1],"tree_param":{"num_deleted":"0","num_feature":"50","num_nodes":"29","size_leaf_vector":"1"}},{"base_weights":[-1.3678309E-2,-2.0516981E-1,7.633967E-2,-3.31769E-1,5.08752E-1,2.240729E-1,6.106312E-3,-4.6803474E-1,2.5759E-1,2.0231235E-1,-1.1157616E-1,1.0627858E-1,-3.4717828E-1,1.9147687E-2,-1.4779747E-1,2.1941544E-1,-1.7974341E-1,-0E0,1.8591219E-1,-1.4323148E-1,3.1031309E-2],"categories":[],"categories_nodes":[],"categories_segments":[],"categories_sizes":[],"default_left":[0,0,0,0,0,0,0,0,0,0,0,0,0,0,0,0,0,0,0,0,0],"id":56,"left_children":[1,3,5,7,9,-1,11,13,15,-1,-1,17,19,-1,-1,-1,-1,-1,-1,-1,-1],"loss_changes":[5.8424683E0,9.879242E0,1.2110787E1,7.9754477E0,5.647798E0,0E0,7.0789638E0,6.6475143E0,1.1714474E1,0E0,0E0,1.0931463E1,5.5556726E0,0E0,0E0,0E0,0E0,0E0,0E0,0E0,0E0],"parents":[2147483647,0,0,1,1,2,2,3,3,4,4,6,6,7,7,8,8,11,11,12,12],"right_children":[2,4,6,8,10,-1,12,14,16,-1,-1,18,20,-1,-1,-1,-1,-1,-1,-1,-1],"split_conditions":[2.57E1,1E0,2.64E1,1E0,1.4319413E1,2.240729E-1,7.4E1,2.27E1,2.496801E1,2.0231235E-1,-1.1157616E-1,1.824112E1,2.8685144E1,1.9147687E-2,-1.4779747E-1,2.1941544E-1,-1.7974341E-1,-0E0,1.8591219E-1,-1.4323148E-1,3.1031309E-2],"split_indices":[0,20,0,5,1,0,2,0,0,0,0,12,0,0,0,0,0,0,0,0,0],"split_type":[0,0,0,0,0,0,0,0,0,0,0,0,0,0,0,0,0,0,0,0,0],"sum_hessian":[3.289441E2,1.0865948E2,2.202846E2,9.4029976E1,1.46294985E1,1.4817621E1,2.0546698E2,7.8035385E1,1.5994593E1,1.1915156E1,2.7143419E0,1.6300807E2,4.245891E1,1.4360123E1,6.3675262E1,1.0433351E1,5.561242E0,1.4208708E2,2.0920998E1,2.9506266E1,1.2952644E1],"tree_param":{"num_deleted":"0","num_feature":"50","num_nodes":"21","size_leaf_vector":"1"}},{"base_weights":[5.5139395E-3,-9.489581E-3,1.814353E-1,5.648918E-2,-2.3332599E-1,-5.2014116E-2,3.4998426E-1,5.9041124E-2,-1.8943734E-1,-1.2714794E-1,1.3918118E-2,1.9068396E-1,-4.6312984E-2,8.8160716E-2,-2.115726E-1],"categories":[],"categories_nodes":[],"categories_segments":[],"categories_sizes":[],"default_left":[0,0,0,0,0,0,0,0,0,0,0,0,0,0,0],"id":57,"left_children":[1,3,-1,5,7,9,11,13,-1,-1,-1,-1,-1,-1,-1],"loss_changes":[4.264303E0,4.701474E0,0E0,7.7351236E0,1.2508626E1,9.152575E0,1.614421E1,1.3075064E1,0E0,0E0,0E0,0E0,0E0,0E0,0E0],"parents":[2147483647,0,0,1,1,3,3,4,4,5,5,6,6,7,7],"right_children":[2,4,-1,6,8,10,12,14,-1,-1,-1,-1,-1,-1,-1],"split_conditions":[3.2893333E1,2.8577961E1,1.814353E-1,2.65625E1,1E0,-4.4603252E0,7.9E1,1E0,-1.8943734E-1,-1.2714794E-1,1.3918118E-2,1.9068396E-1,-4.6312984E-2,8.8160716E-2,-2.115726E-1],"split_indices":[0,0,0,0,4,19,6,17,0,0,0,0,0,0,0],"split_type":[0,0,0,0,0,0,0,0,0,0,0,0,0,0,0],"sum_hessian":[3.1013248E2,3.0346713E2,6.6653304E0,2.311811E2,7.228603E1,1.6665532E2,6.452579E1,4.6320236E1,2.5965796E1,3.257999E1,1.3407533E2,3.666714E1,2.7858644E1,3.624549E1,1.0074744E1],"tree_param":{"num_deleted":"0","num_feature":"50","num_nodes":"15","size_leaf_vector":"1"}},{"base_weights":[-6.956986E-3,-4.8571505E-2,3.4105802E-1,-2.7909815E-1,3.708406E-2,5.687308E-1,-3.7817088E-1,-4.47636E-1,4.930014E-1,6.9924635E-1,-2.9410627E-2,1.5670049E-1,2.1584766E-1,-1.6147211E-1,6.626016E-3,2.3292376E-1,-1.3992156E-1,2.1213526E-1,-1.1137481E-1,2.2144456E-1,-0E0,-1.7685672E-2,2.201868E-1,1.9740102E-1,-1.6527231E-1],"categories":[],"categories_nodes":[],"categories_segments":[],"categories_sizes":[],"default_left":[0,0,0,0,0,0,0,0,0,0,0,0,0,0,0,0,0,0,0,0,0,0,0,0,0],"id":58,"left_children":[1,3,5,7,9,11,13,15,17,19,21,23,-1,-1,-1,-1,-1,-1,-1,-1,-1,-1,-1,-1,-1],"loss_changes":[4.0998845E0,5.707015E0,5.294483E0,1.0327775E1,9.468952E0,1.8994727E0,1.4743893E0,1.1901452E1,5.629501E0,3.0020857E0,6.4134884E0,7.9060984E0,0E0,0E0,0E0,0E0,0E0,0E0,0E0,0E0,0E0,0E0,0E0,0E0,0E0],"parents":[2147483647,0,0,1,1,2,2,3,3,4,4,5,5,6,6,7,7,8,8,9,9,10,10,11,11],"right_children":[2,4,6,8,10,12,14,16,18,20,22,24,-1,-1,-1,-1,-1,-1,-1,-1,-1,-1,-1,-1,-1],"split_conditions":[1E0,2.5217358E1,1E0,1E0,2.64E1,1.71E2,1E0,1.56E2,1.75E2,1E0,1E0,1.7E2,2.1584766E-1,-1.6147211E-1,6.626016E-3,2.3292376E-1,-1.3992156E-1,2.1213526E-1,-1.1137481E-1,2.2144456E-1,-0E0,-1.7685672E-2,2.201868E-1,1.9740102E-1,-1.6527231E-1],"split_indices":[5,0,21,20,0,3,14,3,3,25,21,3,0,0,0,0,0,0,0,0,0,0,0,0,0],"split_type":[0,0,0,0,0,0,0,0,0,0,0,0,0,0,0,0,0,0,0,0,0,0,0,0,0],"sum_hessian":[3.0301633E2,2.7419345E2,2.8822878E1,7.713307E1,1.9706038E2,2.3197252E1,5.625625E0,6.4805305E1,1.2327766E1,1.8636454E1,1.7842393E2,1.22355175E1,1.0961735E1,4.5149755E0,1.1106497E0,4.1560993E0,6.0649204E1,9.6911335E0,2.636633E0,1.422386E1,4.412594E0,1.724935E2,5.9304214E0,7.6087055E0,4.626812E0],"tree_param":{"num_deleted":"0","num_feature":"50","num_nodes":"25","size_leaf_vector":"1"}},{"base_weights":[-0E0,2.6515458E-2,-4.8647362E-1,1.0620753E-1,-2.157075E-1,-2.7430925E-1,1.611872E-1,-4.8568644E-2,3.5208747E-1,3.5577867E-2,-2.2653712E-1,-1.830989E-1,2.9083457E-2,1.9618763E-2,2.6302025E-1,-3.298398E-2,2.2706804E-1],"categories":[],"categories_nodes":[],"categories_segments":[],"categories_sizes":[],"default_left":[0,0,0,0,0,0,0,0,0,0,0,0,0,0,0,0,0],"id":59,"left_children":[1,3,5,7,9,-1,-1,11,13,15,-1,-1,-1,-1,-1,-1,-1],"loss_changes":[3.9013293E0,5.237628E0,1.2769052E1,8.4144745E0,1.2757091E1,0E0,0E0,1.59539385E1,1.5417044E1,8.393913E0,0E0,0E0,0E0,0E0,0E0,0E0,0E0],"parents":[2147483647,0,0,1,1,2,2,3,3,4,4,7,7,8,8,9,9],"right_children":[2,4,6,8,10,-1,-1,12,14,16,-1,-1,-1,-1,-1,-1,-1],"split_conditions":[1.08E2,1E0,1.12E2,1E0,6.4E1,-2.7430925E-1,1.611872E-1,4.3E1,1.69E2,1.76E2,-2.2653712E-1,-1.830989E-1,2.9083457E-2,1.9618763E-2,2.6302025E-1,-3.298398E-2,2.2706804E-1],"split_indices":[6,8,6,10,2,0,0,2,3,3,0,0,0,0,0,0,0],"split_type":[0,0,0,0,0,0,0,0,0,0,0,0,0,0,0,0,0],"sum_hessian":[2.900891E2,2.753942E2,1.4694921E1,2.110123E2,6.43819E1,1.005258E1,4.6423407E0,1.272551E2,8.37572E1,4.7202133E1,1.7179766E1,2.5128574E1,1.02126526E2,6.2906357E1,2.0850845E1,3.9316128E1,7.8860044E0],"tree_param":{"num_deleted":"0","num_feature":"50","num_nodes":"17","size_leaf_vector":"1"}},{"base_weights":[1.5860122E-2,1.9681661E-1,-5.6748554E-2,-0E0,5.0647867E-1,-1.5114528E-1,1.8121463E-1,1.099362E-1,-4.7205916E-1,-6.747242E-3,5.917915E-1,-3.7945516E-2,-8.2270545E-1,2.2113569E-1,-3.0664925E-2,-1.0967533E-1,6.569081E-2,4.234233E-2,-1.778205E-1,-0E0,1.8035789E-1,-4.309889E-2,2.319616E-1,8.190199E-2,-2.5469008E-1,3.1545885E-2,-1.065306E-1],"categories":[],"categories_nodes":[],"categories_segments":[],"categories_sizes":[],"default_left":[0,0,0,0,0,0,0,0,0,0,0,0,0,0,0,0,0,0,0,0,0,0,0,0,0,0,0],"id":60,"left_children":[1,3,5,7,9,11,13,15,17,-1,19,21,23,-1,25,-1,-1,-1,-1,-1,-1,-1,-1,-1,-1,-1,-1],"loss_changes":[3.7769585E0,5.572097E0,4.322995E0,2.997553E0,2.1934338E0,9.811441E0,8.986885E0,3.4763882E0,2.6205773E0,0E0,2.076685E0,1.6397066E1,6.058709E0,0E0,3.0009577E0,0E0,0E0,0E0,0E0,0E0,0E0,0E0,0E0,0E0,0E0,0E0,0E0],"parents":[2147483647,0,0,1,1,2,2,3,3,4,4,5,5,6,6,7,7,8,8,10,10,11,11,12,12,14,14],"right_children":[2,4,6,8,10,12,14,16,18,-1,20,22,24,-1,26,-1,-1,-1,-1,-1,-1,-1,-1,-1,-1,-1,-1],"split_conditions":[-1.278342E0,4.8896134E-1,8.2E1,2.94E1,3.4E1,8E1,8.6E1,2.3038752E1,5.6E1,-6.747242E-3,1.63E2,7.7E1,5.2E1,2.2113569E-1,1E0,-1.0967533E-1,6.569081E-2,4.234233E-2,-1.778205E-1,-0E0,1.8035789E-1,-4.309889E-2,2.319616E-1,8.190199E-2,-2.5469008E-1,3.1545885E-2,-1.065306E-1],"split_indices":[32,34,6,0,2,6,6,0,2,0,3,6,2,0,4,0,0,0,0,0,0,0,0,0,0,0,0],"split_type":[0,0,0,0,0,0,0,0,0,0,0,0,0,0,0,0,0,0,0,0,0,0,0,0,0,0,0],"sum_hessian":[2.7405472E2,8.229744E1,1.9175728E2,4.8970882E1,3.3326557E1,1.4082541E2,5.0931866E1,3.8636585E1,1.0334296E1,2.9209268E0,3.0405632E1,1.2277617E2,1.804924E1,1.1924946E1,3.900692E1,6.6782475E0,3.1958338E1,1.8432E0,8.4910965E0,7.6041656E0,2.2801466E1,1.0932062E2,1.3455558E1,2.0585744E0,1.5990665E1,2.6542175E1,1.2464744E1],"tree_param":{"num_deleted":"0","num_feature":"50","num_nodes":"27","size_leaf_vector":"1"}},{"base_weights":[2.5043024E-3,-3.8063434E-1,4.9203414E-2,-5.506462E-1,-0E0,1.2693903E-1,-8.690328E-2,-0E0,-1.6345209E-1,2.5460798E-1,-2.6756337E-1,6.605357E-1,-3.1209594E-1,-7.973709E-2,9.2785574E-2,-1.4706637E-1,2.3566589E-2,2.3387581E-1,-5.534352E-2,-1.5794161E-1,1.6231261E-1],"categories":[],"categories_nodes":[],"categories_segments":[],"categories_sizes":[],"default_left":[0,0,0,0,0,0,0,0,0,0,0,0,0,0,0,0,0,0,0,0,0],"id":61,"left_children":[1,3,5,7,-1,9,11,-1,-1,13,15,17,19,-1,-1,-1,-1,-1,-1,-1,-1],"loss_changes":[4.3396025E0,1.4376397E0,2.558317E0,1.2844796E0,0E0,7.9151144E0,1.354039E1,0E0,0E0,9.079329E0,5.0989265E0,5.8367085E0,2.1667326E1,0E0,0E0,0E0,0E0,0E0,0E0,0E0,0E0],"parents":[2147483647,0,0,1,1,2,2,3,3,5,5,6,6,9,9,10,10,11,11,12,12],"right_children":[2,4,6,8,-1,10,12,-1,-1,14,16,18,20,-1,-1,-1,-1,-1,-1,-1,-1],"split_conditions":[-4.694147E0,7.0426977E-1,1E0,-1.1633309E0,-0E0,2.8577961E1,1.67E2,-0E0,-1.6345209E-1,2.3038752E1,4.341196E-2,3.12E1,2.7636055E1,-7.973709E-2,9.2785574E-2,-1.4706637E-1,2.3566589E-2,2.3387581E-1,-5.534352E-2,-1.5794161E-1,1.6231261E-1],"split_indices":[16,23,14,39,0,0,3,0,0,0,29,0,0,0,0,0,0,0,0,0,0],"split_type":[0,0,0,0,0,0,0,0,0,0,0,0,0,0,0,0,0,0,0,0,0],"sum_hessian":[2.607371E2,2.503997E1,2.3569711E2,1.6200043E1,8.839928E0,1.5515285E2,8.0544266E1,2.7911258E0,1.3408917E1,1.19564514E2,3.558833E1,1.7094471E1,6.3449795E1,1.956552E1,9.999899E1,1.9712835E1,1.5875495E1,1.362567E1,3.4688003E0,4.8271313E1,1.5178481E1],"tree_param":{"num_deleted":"0","num_feature":"50","num_nodes":"21","size_leaf_vector":"1"}},{"base_weights":[-0E0,-1.9472014E-2,1.6541542E-1,-5.9992675E-2,3.280817E-1,-8.797216E-2,1.7575742E-1,5.380982E-1,-6.7666784E-2,-4.655429E-2,9.943022E-3,1.8793361E-1,-0E0],"categories":[],"categories_nodes":[],"categories_segments":[],"categories_sizes":[],"default_left":[0,0,0,0,0,0,0,0,0,0,0,0,0],"id":62,"left_children":[1,3,-1,5,7,9,-1,11,-1,-1,-1,-1,-1],"loss_changes":[2.9644415E0,3.1587553E0,0E0,4.227442E0,3.3293307E0,3.0542908E0,0E0,2.3273196E0,0E0,0E0,0E0,0E0,0E0],"parents":[2147483647,0,0,1,1,3,3,4,4,5,5,7,7],"right_children":[2,4,-1,6,8,10,-1,12,-1,-1,-1,-1,-1],"split_conditions":[1E0,1E0,1.6541542E-1,1E0,1E0,-2.422763E-1,1.7575742E-1,1.7842257E0,-6.7666784E-2,-4.655429E-2,9.943022E-3,1.8793361E-1,-0E0],"split_indices":[9,5,0,21,21,19,0,28,0,0,0,0,0],"split_type":[0,0,0,0,0,0,0,0,0,0,0,0,0],"sum_hessian":[2.4795125E2,2.4270818E2,5.243061E0,2.2089128E2,2.1816898E1,2.1543991E2,5.4513793E0,1.761903E1,4.1978683E0,1.23956825E2,9.148308E1,1.1949876E1,5.6691537E0],"tree_param":{"num_deleted":"0","num_feature":"50","num_nodes":"13","size_leaf_vector":"1"}},{"base_weights":[4.26016E-3,7.1657225E-2,-2.0769718E-1,1.3284881E-1,-3.5260475E-1,4.4727272E-1,-3.966986E-1,1.9645882E-1,-3.3643344E-1,-7.3802173E-1,8.4458314E-2,-0E0,1.5778315E-1,2.3742092E-1,-5.2946854E-1,8.6993285E-2,-0E0,-1.2255434E-1,3.9615333E-2,5.556415E-2,-2.4053866E-1,1.7852129E-1,-9.6711874E-2,-6.2580705E-2,1.5729086E-1,-1.586745E-1,1.22682236E-1],"categories":[],"categories_nodes":[],"categories_segments":[],"categories_sizes":[],"default_left":[0,0,0,0,0,0,0,0,0,0,0,0,0,0,0,0,0,0,0,0,0,0,0,0,0,0,0],"id":63,"left_children":[1,3,5,7,9,11,13,15,17,19,21,-1,-1,23,25,-1,-1,-1,-1,-1,-1,-1,-1,-1,-1,-1,-1],"loss_changes":[3.3992968E0,4.797665E0,7.051347E0,5.015671E0,4.5216846E0,1.6509781E0,4.2520056E0,4.667562E0,2.0150487E0,4.257906E0,3.7710872E0,0E0,0E0,2.0196314E0,5.449482E0,0E0,0E0,0E0,0E0,0E0,0E0,0E0,0E0,0E0,0E0,0E0,0E0],"parents":[2147483647,0,0,1,1,2,2,3,3,4,4,5,5,6,6,7,7,8,8,9,9,10,10,13,13,14,14],"right_children":[2,4,6,8,10,12,14,16,18,20,22,-1,-1,24,26,-1,-1,-1,-1,-1,-1,-1,-1,-1,-1,-1,-1],"split_conditions":[1E0,1.83E2,-1.3697278E0,2.1203487E1,1.87E2,3.3451006E0,1.58E2,7.550288E-1,1.73E2,7.3E1,1.88E2,-0E0,1.5778315E-1,1.57E2,1.79E2,8.6993285E-2,-0E0,-1.2255434E-1,3.9615333E-2,5.556415E-2,-2.4053866E-1,1.7852129E-1,-9.6711874E-2,-6.2580705E-2,1.5729086E-1,-1.586745E-1,1.22682236E-1],"split_indices":[8,3,46,12,3,1,3,22,3,6,3,0,0,3,3,0,0,0,0,0,0,0,0,0,0,0,0],"split_type":[0,0,0,0,0,0,0,0,0,0,0,0,0,0,0,0,0,0,0,0,0,0,0,0,0,0,0],"sum_hessian":[2.4635303E2,1.9130437E2,5.5048653E1,1.700163E2,2.1288067E1,1.0740347E1,4.4308308E1,1.5226242E2,1.7753878E1,1.2282277E1,9.005789E0,